/* Auto generated from checkpoint checkpoint_epoch_200.pth */


#ifdef HAVE_CONFIG_H
#include "config.h"
#endif

#include "rade_sync_data.h"


#ifndef USE_WEIGHTS_FILE

#define WEIGHTS_sync_dense1_weights_float_DEFINED
#define WEIGHTS_sync_dense1_weights_float_TYPE WEIGHT_TYPE_float
static const float sync_dense1_weights_float[3584] = {
    -0.06322133541107178, -0.01614120602607727, -0.02287442795932293, -0.0023726834915578365, -0.06391316652297974, -0.008184364065527916, 0.018188485875725746, 0.050963692367076874,
    -0.01946248672902584, 0.02388390712440014, 0.005781608168035746, -0.03487120196223259, 0.055088914930820465, -0.02427351102232933, 0.08646373450756073, 0.02265845611691475,
    -0.007875459268689156, 0.025882538408041, -0.023852884769439697, -0.06152690201997757, 0.00997452437877655, -0.14135883748531342, 0.06790854036808014, -0.06435977667570114,
    0.005140354391187429, -0.022482234984636307, -0.03510505333542824, 0.09572851657867432, -0.08323270827531815, 0.0008575296378694475, -0.004807918332517147, 0.03440289944410324,
    -0.02644970826804638, -0.0508473664522171, 0.06945084780454636, -0.04439585655927658, 0.09190771728754044, -0.018855823203921318, -0.09072104096412659, 0.04678959771990776,
    0.02887575700879097, 0.03639381751418114, -0.02756423130631447, 0.00040733706555329263, -0.005546276923269033, 0.041077300906181335, 0.05834260210394859, -0.031190212815999985,
    -0.03845781460404396, 0.018741274252533913, 0.011379553005099297, -0.026780011132359505, 0.10031113773584366, -0.03853996470570564, 0.05158735439181328, -0.004482834134250879,
    0.06659422069787979, 0.022930920124053955, -0.06720869988203049, -0.027567559853196144, 0.03430841118097305, 0.01924395188689232, 0.004564099945127964, 0.01844954863190651,
    0.010243361815810204, 0.0022809719666838646, 0.03585121035575867, -0.014450586400926113, 0.019061725586652756, -0.00400772038847208, -0.06252730637788773, -0.03596740588545799,
    -0.001407681847922504, -0.039144374430179596, -0.001592240179888904, 0.010291330516338348, 0.023632986471056938, -0.0021716731134802103, 0.09840457886457443, -0.026309434324502945,
    -0.05512424558401108, -0.10175112634897232, -0.07050590217113495, 0.025190984830260277, -0.05191290006041527, -0.10061885416507721, 0.011045781895518303, 0.062498949468135834,
    -0.08060545474290848, -0.02260587364435196, -0.0518069863319397, 0.05407947301864624, 0.05768891051411629, -0.03721601143479347, 0.037114668637514114, -0.02450336143374443,
    -0.011510469950735569, -0.028187420219182968, 0.049688246101140976, -0.047071535140275955, 0.10557545721530914, -0.013944217003881931, -0.07328462600708008, -0.047031328082084656,
    0.02109573595225811, 0.030885862186551094, -0.0878172218799591, 0.05849704518914223, 0.05253604054450989, 0.07296684384346008, 0.024585112929344177, 0.10874185711145401,
    -0.008839507587254047, 0.06888531893491745, 0.07935048639774323, -0.0035923828836530447, 0.06919513642787933, 0.005632015410810709, 0.005470702890306711, -0.024806957691907883,
    0.03772847354412079, 0.04077915847301483, -0.01901475340127945, -0.02779536508023739, 0.04994697496294975, -0.00668645603582263, -0.048035211861133575, 0.06921851634979248,
    0.022484194487333298, -0.0006047924980521202, 0.036790624260902405, 0.0358789823949337, -0.0594463124871254, 0.009162738919258118, -0.016889141872525215, -0.0068800742737948895,
    -0.028408031910657883, -0.00042022322304546833, -0.019712774083018303, 0.05121025815606117, 0.012252516113221645, 0.01878153160214424, 0.05720973387360573, 0.015225054696202278,
    -0.006544957403093576, -0.040121544152498245, 0.017080187797546387, -0.00273336679674685, -0.012918521650135517, -0.00880351010710001, 0.04073134809732437, 0.013416873291134834,
    -0.03803054988384247, -0.03775419667363167, -0.018762094900012016, 0.03995257988572121, -0.025930240750312805, 0.07140311598777771, 0.07489320635795593, -0.05272844433784485,
    0.04568935185670853, -0.05819837003946304, 0.012448161840438843, -0.08808141946792603, -0.00016772170783951879, 0.0005107405013404787, -0.003241739235818386, -0.002360548358410597,
    -0.015605956315994263, 0.0032355787698179483, 0.039618100970983505, -0.017776228487491608, -0.18830746412277222, -0.00759591069072485, 0.03668259084224701, -0.03978608548641205,
    0.04619338735938072, -0.03559409826993942, 0.10452441871166229, 0.03457468003034592, 0.08530336618423462, -0.004823615774512291, -0.02868841588497162, -0.050601497292518616,
    0.03796469420194626, -0.03871884569525719, -0.02409663051366806, 0.03707602247595787, 0.015306126326322556, 0.019310016185045242, -0.008186521008610725, 0.02420242689549923,
    0.00020060378301423043, -0.009479215368628502, 0.021240120753645897, 0.0018320189556106925, 0.014087347313761711, -0.002518654800951481, 0.03896082937717438, -0.05364658683538437,
    -0.02635945938527584, 0.013480780646204948, 0.028894299641251564, 0.019189344719052315, 0.03324276953935623, 0.01165984757244587, 0.08891955763101578, 0.05608454719185829,
    -0.09022685885429382, 0.008350921794772148, 0.012608155608177185, 0.004716360941529274, 0.00978783518075943, -0.00826078187674284, 0.033420026302337646, -0.011753436177968979,
    0.09245603531599045, -0.011285762302577496, 0.009935036301612854, 0.012861303053796291, -0.03613957762718201, -0.014247315004467964, 0.04308362305164337, 0.01400285679847002,
    -0.013605679385364056, -0.07757759839296341, 0.09112420678138733, 0.0045580253936350346, -0.02125764638185501, 0.0657581239938736, -0.10152943432331085, -0.07387978583574295,
    0.013464878313243389, -0.026385735720396042, -0.08406037837266922, 0.05351904407143593, 0.013302160426974297, -0.06754889339208603, 0.008983061648905277, 0.032982807606458664,
    0.03607438877224922, -0.018300898373126984, 0.06000303477048874, 0.009273475036025047, 0.05794847756624222, 0.028083819895982742, -0.024068238213658333, -0.10172095149755478,
    -0.03306084871292114, 0.011013723909854889, 0.0028036038856953382, -0.012930996716022491, 0.055737122893333435, -0.0008925099391490221, 0.05685481056571007, 0.06495188176631927,
    0.04364149644970894, -0.0075874533504247665, 0.07709867507219315, -0.007979022338986397, 0.003499365644529462, 0.0015131649561226368, 0.0539957731962204, -0.04813132435083389,
    -0.10342994332313538, -0.11066769808530807, -0.041232846677303314, -0.03464951738715172, 0.03685349225997925, -0.029344763606786728, -0.039763059467077255, 0.0037482441402971745,
    0.00122915580868721, -0.10021733492612839, 0.08791915327310562, -0.033682599663734436, 0.048099763691425323, 0.018037443980574608, -0.03306159749627113, -0.03411925956606865,
    0.02433001808822155, 0.10472923517227173, -0.030093662440776825, -0.07083264738321304, -0.15035279095172882, -0.060259971767663956, -0.03803599253296852, -0.01876816526055336,
    0.10997842252254486, 0.09061919897794724, 0.023437049239873886, -0.17461709678173065, -0.012541166506707668, -0.015779536217451096, 0.09253422170877457, 0.0252054575830698,
    -0.08368812501430511, 0.03566383942961693, 0.06798122078180313, 0.016966599971055984, -0.05040617659687996, 0.0029342160560190678, -0.03501896560192108, -0.015619446523487568,
    0.03538939356803894, -0.005946238059550524, -0.06773010641336441, 0.048484332859516144, -0.04501732811331749, 0.004570349585264921, 0.23322941362857819, -0.007056656759232283,
    -0.024517789483070374, 0.024984557181596756, 0.029548926278948784, -0.03974391520023346, 0.04342329874634743, -0.06913583725690842, -0.12383215129375458, -0.029298003762960434,
    0.025653988122940063, 0.027076756581664085, -0.06454931199550629, 0.013028102926909924, 0.03653354197740555, -0.040571264922618866, -0.1908421665430069, 0.005358751863241196,
    0.00932647380977869, -0.01862216554582119, 0.03257295489311218, 0.2098010629415512, -0.08799083530902863, -0.1794111281633377, 0.18359485268592834, -0.08748532831668854,
    -0.060924362391233444, -0.11726131290197372, -0.020657939836382866, 0.033602748066186905, 0.018223220482468605, 0.1306784301996231, 0.003542054444551468, 0.12494021654129028,
    -0.11157829314470291, -0.01630246452987194, 0.01873021200299263, -0.005876339506357908, -0.004153580870479345, -0.14841607213020325, -0.06920671463012695, 0.09272712469100952,
    0.15070132911205292, 0.1274353712797165, -0.0642494484782219, -0.09901349991559982, -0.045260004699230194, 0.0032895382028073072, 0.07436738908290863, 0.07324289530515671,
    -0.0756494328379631, -0.07108312845230103, 0.07483512163162231, 0.05899670347571373, -0.003924350719898939, -0.02440759353339672, -0.046495579183101654, -0.03729381784796715,
    -0.024344397708773613, -0.06124095618724823, -0.04656601324677467, 0.07543154060840607, -0.13337524235248566, 0.00042106155888177454, -0.026130501180887222, 0.06049833074212074,
    -0.026019874960184097, 0.025741267949342728, 0.03960256278514862, 0.04717462882399559, 0.005977115593850613, -0.05099506676197052, 0.10492470860481262, 0.09303604066371918,
    0.08726377040147781, -0.03212907165288925, 0.0720660611987114, -0.020360060036182404, -0.07918168604373932, 0.016184737905859947, 0.01486346498131752, -0.18901638686656952,
    -0.15467804670333862, -0.003562785917893052, -0.024386385455727577, -0.1866334080696106, 0.032415296882390976, 0.08539649844169617, 0.04219828173518181, 0.028638362884521484,
    -0.09417364746332169, -0.09671948105096817, -0.0528571754693985, 0.0033324023243039846, -0.08406387269496918, 0.10240443050861359, -0.052671439945697784, -0.03020421788096428,
    -0.05486426502466202, -0.007267650682479143, 0.05269576236605644, 0.01936161331832409, -0.22708454728126526, -0.17611217498779297, -0.025786297395825386, -0.10637791454792023,
    0.058765679597854614, -0.06525745242834091, -0.04499279707670212, -0.007296914234757423, 0.0043370467610657215, 0.04706979915499687, -0.061842549592256546, 0.07003886252641678,
    -0.08426540344953537, -0.09566670656204224, -0.04173038899898529, 0.01100784633308649, 0.18649514019489288, -0.028870515525341034, -0.02459019050002098, 0.0791526660323143,
    0.05701223760843277, 0.0962781012058258, 0.08356297761201859, 0.06433311104774475, 0.006853834725916386, -0.014896216802299023, 0.5011619329452515, -0.0025390589144080877,
    -0.06112438812851906, 0.007269207388162613, 0.12137956917285919, 0.040439825505018234, -0.0004105140978936106, -0.06452401727437973, -0.2234821915626526, -0.17546041309833527,
    0.1600998193025589, -0.04458186775445938, 0.027575312182307243, 0.24527692794799805, -0.0009060561424121261, -0.14623476564884186, 0.021114809438586235, 0.163013756275177,
    -0.179366335272789, -0.021781010553240776, -0.023265568539500237, 0.283271849155426, -0.1316559761762619, -0.3690192699432373, -0.04800935089588165, 0.008387932553887367,
    -0.02323378622531891, -0.1872561126947403, 0.02399127557873726, 0.0018954344559460878, 0.006879165768623352, -0.09357942640781403, -0.17827118933200836, -0.026629159227013588,
    -0.01164315827190876, 0.0069807590916752815, -0.01998661272227764, -0.0003050420491490513, -0.022862734273076057, -0.2089691311120987, -0.12111487984657288, 0.041981473565101624,
    -0.054534513503313065, -0.043203338980674744, 0.03946753963828087, 0.05405158922076225, 0.02334028296172619, 0.0027552542742341757, -0.012257766909897327, 0.31253907084465027,
    -0.20534564554691315, -0.0007360844174399972, -0.0834566131234169, -0.06336811929941177, 0.030361365526914597, -0.009880111552774906, 0.013078868389129639, -0.06906631588935852,
    0.018559720367193222, -0.12386918067932129, 0.0429539792239666, 0.20931889116764069, 0.05457723140716553, 0.0412139929831028, 0.03889721632003784, 0.0007344924961216748,
    0.04324750229716301, 0.06523670256137848, -0.09437978267669678, 0.01794051006436348, 0.1722147911787033, 0.07429569959640503, 0.19280554354190826, -0.0903988853096962,
    0.1264105886220932, -0.10870930552482605, 0.09388449043035507, 0.09527436643838882, 0.019375039264559746, -0.09144277125597, 0.021349012851715088, 0.011571242474019527,
    0.0798482596874237, 0.05261320620775223, -0.17165866494178772, -0.035162217915058136, 0.0238579660654068, 0.06465522944927216, -0.037671249359846115, -0.006826785393059254,
    0.014049222692847252, 0.1311076581478119, -0.02639746107161045, 0.016524244099855423, 0.08152838796377182, -0.029296914115548134, -0.0702366903424263, -0.03343750908970833,
    -0.010916469618678093, 0.0339961051940918, 0.03594041243195534, -0.0530763678252697, 0.04140821844339371, -0.0774853527545929, 0.12203843891620636, -0.10083301365375519,
    0.03424574434757233, 0.05627090483903885, -0.005038850475102663, -0.018128544092178345, -0.053540442138910294, 0.02806021273136139, -0.023211894556879997, -0.04117043688893318,
    -0.15659448504447937, -0.033243585377931595, 0.007916616275906563, 0.09636956453323364, -0.143732488155365, -0.030150262638926506, -0.004493611864745617, -0.00073874497320503,
    0.11727467179298401, 0.08373642712831497, 0.10426434874534607, 0.17258790135383606, 0.011482876725494862, 0.045726124197244644, -0.09449445456266403, -0.01656630076467991,
    -0.10924237966537476, -0.005867351777851582, 0.04605073854327202, -0.0771963819861412, 0.011477976106107235, -0.04922828450798988, -0.031307999044656754, 0.020933987572789192,
    0.03504068776965141, -0.05814601480960846, 0.042991045862436295, -0.025409631431102753, 0.0030268332920968533, 0.029644640162587166, -0.02765151485800743, -0.04726347699761391,
    -0.0004039619816467166, 0.008491353131830692, 0.004501666408032179, -0.04442822188138962, -0.08138809353113174, -0.09922432154417038, 0.012111209332942963, 0.0541362427175045,
    -0.20444495975971222, -0.0326884388923645, -0.04841800779104233, -0.03922661766409874, 0.034896306693553925, 0.10878308117389679, 0.00022330859792418778, -0.018813520669937134,
    0.04039536789059639, 0.021806199103593826, 0.003083989256992936, 0.02099987305700779, 0.11138960719108582, 0.07133304327726364, 0.007694973610341549, -0.06295845657587051,
    0.006612914148718119, 0.0005956125096417964, 0.031961776316165924, -0.06779073923826218, 0.05314699187874794, -0.01652505062520504, 0.010574008338153362, -0.1519264578819275,
    0.16875727474689484, -0.006857472471892834, 0.006644201464951038, 0.0012007831828668714, -0.11193989217281342, 0.03052019514143467, 0.07110445946455002, 0.05811901018023491,
    0.0774102732539177, -0.03188628330826759, -0.023359348997473717, -0.02349119819700718, -0.03628119081258774, 0.16006778180599213, -0.028503097593784332, -0.007261212449520826,
    0.11760681122541428, 0.06183416396379471, 0.10024546831846237, 0.06139838695526123, 0.11073271930217743, 0.016027498990297318, 0.004666957538574934, -0.07621791213750839,
    -0.13782717287540436, -0.11332103610038757, -0.22591044008731842, 0.031687088310718536, -0.06106247007846832, 0.07366521656513214, 0.021238327026367188, 0.1508055329322815,
    0.07374583929777145, 0.0368744358420372, 0.018804039806127548, 0.07269179821014404, 0.1609930396080017, 0.005460797809064388, -0.004510870203375816, 0.021546225994825363,
    -0.06611531227827072, 0.17232629656791687, 0.005585653707385063, 0.022070925682783127, -0.013269424438476562, -0.09263141453266144, 0.10275908559560776, 0.0481746606528759,
    -0.06783636659383774, 0.01850464567542076, 0.008349917829036713, 0.007959543727338314, -0.13910633325576782, 0.036877501755952835, -0.04622776061296463, -0.05108461156487465,
    0.08986765891313553, -0.0752134919166565, -0.009713890962302685, 0.0170882735401392, -0.026708483695983887, 0.057501260191202164, 0.04143739119172096, -0.21036860346794128,
    -0.18791361153125763, 0.042899493128061295, 0.012088088318705559, -0.18108095228672028, -0.03077174723148346, 0.008052741177380085, 0.016779614612460136, 0.008867568336427212,
    0.2096967250108719, -0.07533939927816391, 0.05511493980884552, -0.00997795257717371, 0.05323435738682747, 0.14726267755031586, 0.054068636149168015, -0.005346126388758421,
    0.18445780873298645, 0.11755093187093735, 0.1190737709403038, -0.008898627944290638, -0.06981413811445236, 0.05785655602812767, 0.05951856076717377, 0.22276487946510315,
    -0.26901546120643616, -0.10895927995443344, -0.027663182467222214, 0.04052360728383064, -0.052255988121032715, -0.010310385376214981, -0.016953283920884132, -0.07557071000337601,
    0.1267411708831787, -0.0353982150554657, -0.08218314498662949, 0.11806109547615051, 0.2115895003080368, 0.14529667794704437, -0.025944959372282028, -0.01912071369588375,
    0.05863793194293976, -0.0021305447444319725, -0.00492797140032053, -0.04412444308400154, 0.06942105293273926, -0.0925193727016449, 0.12751977145671844, 0.06780531257390976,
    0.01451900228857994, -0.003756171092391014, 0.04131533205509186, -0.009202374145388603, 0.14801089465618134, -0.19404339790344238, -0.1282242238521576, -0.011767600663006306,
    -0.06402135640382767, -0.042999062687158585, -0.005184842739254236, 0.018224330618977547, 0.038608141243457794, 0.0009559314930811524, 0.01932254433631897, 0.05744629725813866,
    0.2095649540424347, -0.03472423925995827, -0.0028354127425700426, -0.018083766102790833, -0.10028457641601562, -0.0035640066489577293, -0.022222476080060005, 0.032799504697322845,
    -0.07484172284603119, -0.22424259781837463, -0.027014566585421562, 0.170956090092659, 0.0076746814884245396, 0.19146038591861725, 0.06751510500907898, 0.02025342360138893,
    0.02375132590532303, -0.07108544558286667, -0.03280115872621536, -0.0036647701635956764, 0.09589017927646637, 0.06955740600824356, -0.06464121490716934, -0.18161678314208984,
    -0.05538808926939964, 0.11434738337993622, -0.1218552216887474, 0.04573590308427811, -0.05778485909104347, -0.17235338687896729, 0.04536167532205582, 0.0689646378159523,
    -0.06016770377755165, -0.021223159506917, -0.027560627087950706, -0.07308559864759445, 0.177785262465477, 0.05441506206989288, 0.014867381192743778, -0.016823220998048782,
    0.08024434000253677, 0.058219972997903824, -0.03657103329896927, 0.033245235681533813, -0.057481177151203156, -0.13644491136074066, -0.006416568532586098, 0.041136521846055984,
    -0.09266148507595062, 0.09076189994812012, 0.004721946083009243, 0.005930131301283836, -0.036211252212524414, 0.03413616493344307, 0.0539933443069458, 0.06265631318092346,
    -0.05102822929620743, 0.0028504482470452785, -0.04522915929555893, 0.0643434152007103, -0.05530521646142006, 0.03412103280425072, -0.04488980025053024, -0.06674544513225555,
    -0.1266905814409256, -0.01737508736550808, -0.04602914676070213, -0.0021518899593502283, 0.037387557327747345, -0.041930824518203735, -0.10736948251724243, 0.06913120299577713,
    -0.04948204755783081, -0.04947766661643982, 0.06903177499771118, 0.13439759612083435, 0.08643096685409546, -0.13262684643268585, -0.011993012391030788, -0.06065773591399193,
    0.09986468404531479, -0.025315742939710617, -0.13343650102615356, 0.04665541648864746, 0.19987064599990845, -0.0033337415661662817, -0.017864709720015526, -0.129197359085083,
    -0.03863774612545967, 0.1822553277015686, 0.029198182746767998, -0.0932164341211319, 0.05350453779101372, -0.04093459993600845, 0.04498867690563202, -0.045255955308675766,
    -0.05572115257382393, 0.004245818592607975, -0.03738236054778099, -0.1311846226453781, 0.06159349903464317, 0.04118822515010834, -0.0860171988606453, 0.06253132224082947,
    -0.03133099153637886, -0.015892909839749336, -0.0728081688284874, -0.07546892017126083, 0.006650764029473066, 0.0061995042487978935, -0.04928421229124069, 0.05561242252588272,
    0.08486189693212509, -0.11632531136274338, -0.05420888960361481, -0.10864244401454926, 0.1684788018465042, -0.07608293741941452, 0.03566587343811989, 0.09116790443658829,
    -0.15107332170009613, 0.03821360319852829, 0.00045480113476514816, -0.005550396628677845, -0.03650440648198128, 0.024694032967090607, -0.04901445657014847, -0.00216174079105258,
    -0.01999211125075817, -0.05021366477012634, 0.015117655508220196, -0.07758822292089462, -0.12310737371444702, 0.07045010477304459, 0.01216367818415165, 0.08508289605379105,
    0.04923757165670395, -0.08197315037250519, 0.008375530131161213, 0.15206138789653778, -0.013067323714494705, 0.0567474327981472, -0.03822717443108559, 0.034275121986866,
    -0.10362716019153595, 0.17357951402664185, 0.12776407599449158, 0.12798255681991577, -0.1379295289516449, -0.062188077718019485, 0.06056075543165207, -0.12893573939800262,
    -0.14341765642166138, 0.1638108640909195, 0.17324309051036835, 0.07364378869533539, 0.043920185416936874, -0.2390887439250946, -0.086493119597435, 0.0657016709446907,
    0.09251565486192703, 0.00787521805614233, -0.04319078475236893, 0.08150746673345566, 0.009082083590328693, -0.06230339780449867, 0.054480962455272675, 0.03978816419839859,
    -0.018832625821232796, -0.03873017430305481, 0.02077445387840271, -0.023182876408100128, -0.031554676592350006, 0.008233871310949326, -0.023279650136828423, -0.04675169661641121,
    -0.019183849915862083, -0.02218572609126568, 0.08338357508182526, -0.044523656368255615, 0.041257183998823166, 0.12636597454547882, -0.05044033005833626, -0.15204115211963654,
    0.0022046405356377363, 0.021333005279302597, -0.026952054351568222, -0.003062462667003274, -0.032590217888355255, -0.014963794499635696, -0.06432302296161652, -0.18327437341213226,
    0.01627434231340885, -0.0016939890338107944, 0.03632550314068794, 0.048862867057323456, 0.026001418009400368, -0.02901778183877468, -0.05312716215848923, 0.0074228765442967415,
    -0.009646793827414513, 0.08106745034456253, 0.027097824960947037, 0.003016429953277111, -0.013089464977383614, -0.13950079679489136, 0.07583609223365784, 0.03024822100996971,
    -0.037066750228405, 0.018819984048604965, 0.06218935549259186, 0.0527736097574234, -0.07599825412034988, 0.03929920494556427, 0.09714586287736893, -0.1798652857542038,
    0.10390660166740417, 0.1956113874912262, -0.042253077030181885, 0.040594249963760376, -0.00860813818871975, 0.1057959645986557, 0.0037624810356646776, 0.010329832322895527,
    0.220261350274086, -0.012482765130698681, -0.08423791825771332, -0.033054038882255554, -0.06583050638437271, -0.02386471815407276, 0.0025716156233102083, -0.0257806945592165,
    -0.08273462951183319, -0.06187351793050766, -0.011374928057193756, -0.020978938788175583, 0.053857505321502686, -0.08508956432342529, -0.073174849152565, -0.010570607148110867,
    0.03111157938838005, 0.012408161535859108, 0.02217833139002323, 0.028746698051691055, -0.001723725930787623, 0.13003963232040405, -0.08597853779792786, -0.046753622591495514,
    -0.057373564690351486, -0.0238632895052433, -0.057647351175546646, 0.02042374759912491, -0.007505947258323431, -0.06976572424173355, 0.012926029041409492, -0.01923478953540325,
    -0.09342344850301743, 0.02015390619635582, 0.031469956040382385, -0.04102997109293938, 0.041875261813402176, 0.0037689944729208946, -0.045328181236982346, 0.029952261596918106,
    -0.12174665182828903, -0.17461806535720825, -0.027832284569740295, 0.07526561617851257, -0.02075517363846302, 0.10912402719259262, -0.034130413085222244, -0.031026944518089294,
    -0.07945364713668823, 0.16861794888973236, -0.09779287129640579, 0.008313740603625774, -0.013852652162313461, -0.02807643823325634, -0.15333427488803864, -0.1563805788755417,
    -0.10529612749814987, -0.05299822986125946, -0.07853527367115021, 0.12430315464735031, -0.012708049267530441, -0.10894818603992462, -0.059259530156850815, -0.22058036923408508,
    -0.06425750255584717, 0.042008113116025925, -0.006457510869950056, 0.00432400731369853, 0.11845061928033829, -0.08106642216444016, -0.011110170744359493, -0.0378151461482048,
    -0.13927584886550903, 0.07903290539979935, 0.020005209371447563, 0.01671857014298439, -0.0300445519387722, -0.0476282499730587, 0.024591846391558647, 0.04481442645192146,
    -0.010223384946584702, -0.04351236671209335, -0.022293930873274803, -0.02071593701839447, 0.09344653785228729, 0.11562346667051315, 0.03457585722208023, 0.18231640756130219,
    -0.04347551241517067, 0.02167031168937683, -0.034648604691028595, 0.024396829307079315, -0.04080045595765114, 0.010349201038479805, -0.015011080540716648, 0.10015633702278137,
    -0.07422123849391937, 0.032092951238155365, -0.01606496050953865, -0.11104852706193924, -0.05541255325078964, -0.03264337778091431, -0.006987306755036116, -0.0343845896422863,
    -0.04970237985253334, -0.03444086015224457, -0.0384463369846344, -0.04791579395532608, -0.014231199398636818, -0.11499159038066864, -0.021397430449724197, 0.007011217065155506,
    0.04527752473950386, 0.21771714091300964, 0.09585051983594894, -0.03448126092553139, -0.01684134267270565, -0.08398088812828064, -0.17997704446315765, 0.06898406147956848,
    -0.2568701207637787, 0.2053719311952591, -0.007521192543208599, 0.04264811426401138, -0.030505336821079254, 0.12484679371118546, -0.017399940639734268, 0.03274916112422943,
    -0.06403123587369919, -0.022523364052176476, 0.00777839682996273, 0.013459229841828346, -0.22764945030212402, -0.0348873995244503, 0.05094917118549347, 0.011193008162081242,
    0.10627669095993042, 0.0877208262681961, -0.03820493072271347, -0.00010799968731589615, 0.0288340225815773, -0.02516789175570011, -0.07026921957731247, 0.018081434071063995,
    -0.035701435059309006, -0.014269392006099224, -0.05486788973212242, 0.02462630532681942, -0.09025920927524567, -0.1386505514383316, -0.029430005699396133, -0.0035561604890972376,
    -0.008154772222042084, -0.0019137663766741753, 0.003278601448982954, 0.10887666791677475, -0.03965926915407181, -0.049014609307050705, 0.11697336286306381, 0.15011902153491974,
    0.07239965349435806, 0.01977253332734108, -0.0060051679611206055, -0.036993056535720825, 0.14800186455249786, -0.026766300201416016, 0.00566474674269557, 0.03387867286801338,
    0.18027536571025848, 0.09792541712522507, -0.02378217875957489, -0.1577831208705902, 0.03151858225464821, 0.1217208132147789, -0.051656391471624374, -0.027915863320231438,
    -0.045022472739219666, 0.08377918601036072, -0.19908076524734497, -0.0698695257306099, 0.03871992975473404, -0.009195364080369473, -0.10746254026889801, 0.031188448891043663,
    0.11262820661067963, 0.05301722511649132, 0.14861465990543365, -0.07112935185432434, 0.026604678481817245, -0.13712257146835327, 0.10442138463258743, 0.03447698429226875,
    0.08604724705219269, -0.053842298686504364, 0.24471765756607056, 0.020098693668842316, 0.031521931290626526, -0.01783629134297371, -0.02134588174521923, 0.10975498706102371,
    0.064353808760643, 0.16009676456451416, -0.03938896581530571, 0.021977683529257774, 0.08643550425767899, 0.05629020184278488, 0.10994217544794083, -0.11621587723493576,
    -0.0060348245315253735, -0.038405995815992355, 0.0015838436083868146, 0.06662335246801376, 0.02624812163412571, -0.08437338471412659, 0.07281487435102463, -0.08975490182638168,
    -0.04258057475090027, -0.033978790044784546, -0.00010081395885208622, -0.02324792556464672, 0.015456068329513073, -0.029828844591975212, 0.13175779581069946, -0.06036119908094406,
    -0.000989116495475173, -0.01243740227073431, 0.04130030423402786, -0.13313204050064087, -0.07754489779472351, -0.035474713891744614, 0.07657238841056824, 0.08369863033294678,
    -0.1809445321559906, -0.09484314918518066, -0.012103736400604248, -0.020171528682112694, -0.017772477120161057, 0.0836971178650856, 0.010391859337687492, 0.09043103456497192,
    0.07797923684120178, 0.03748437762260437, -0.0681740939617157, -0.01579064130783081, 0.05824354663491249, 0.07799434661865234, 0.0333099290728569, 0.03727985545992851,
    -0.005628333427011967, -0.032973796129226685, -0.07812672853469849, 0.07258179038763046, 0.05745573341846466, 0.015654543414711952, 0.050365839153528214, -0.07512931525707245,
    0.12120156735181808, 0.033346131443977356, 0.13262557983398438, 0.029670914635062218, 0.12456316500902176, 0.04353988915681839, -0.03023415617644787, 0.009706264361739159,
    0.06692200899124146, -0.1369878351688385, 0.025061657652258873, 0.03040274605154991, 0.08184345811605453, -0.045789819210767746, -0.029463928192853928, 0.0856877788901329,
    -0.012553277425467968, -0.10704891383647919, 0.03683613985776901, 0.009881106205284595, 0.1291944980621338, -0.04556342214345932, 0.21448451280593872, 0.04620404168963432,
    0.11604639887809753, -0.08168978244066238, -0.034185152500867844, 0.08197436481714249, -0.02699492871761322, 0.11138520389795303, 0.07797836512327194, -0.005526866298168898,
    -0.05386289209127426, 0.025098396465182304, -0.003704605856910348, -0.06577770411968231, 0.03871174901723862, 0.030793368816375732, -0.0258096344769001, -0.04625421389937401,
    0.10587586462497711, 0.024252677336335182, -0.07935160398483276, -0.13036508858203888, 0.026766784489154816, -0.08599641174077988, 0.012253902852535248, -0.005407471209764481,
    -0.10891938209533691, 0.17367002367973328, -0.14568191766738892, -0.014832762070000172, -0.1273200511932373, -0.0014103284338489175, 0.00934763252735138, -0.03684619441628456,
    -0.02260400354862213, 0.03783223032951355, 0.1795842945575714, 0.24042841792106628, 0.026012759655714035, -0.07937172055244446, 0.022755911573767662, -0.14162951707839966,
    0.13540248572826385, 0.02406683936715126, 0.2004193365573883, 0.07457494735717773, -0.16529133915901184, 0.027687696740031242, -0.019331539049744606, -0.03177228197455406,
    -0.07884731143712997, -0.03182495757937431, 0.00564164575189352, 0.027396883815526962, -0.0017654546536505222, -0.16966892778873444, 0.0834989845752716, 0.056303590536117554,
    0.07835816591978073, -0.06455432623624802, -0.046301089227199554, -0.01876254938542843, -0.23949025571346283, -0.09676704555749893, -0.05301178991794586, 0.06974376738071442,
    0.09697161614894867, 0.04306443780660629, -0.019139479845762253, 0.06962063163518906, -0.0010130006121471524, 0.073066845536232, -0.03481128066778183, -0.044950827956199646,
    0.05564894154667854, -0.04611221328377724, 0.045734748244285583, -0.11056037247180939, -0.044087134301662445, -0.01218625158071518, -0.03613445535302162, -0.07758411020040512,
    0.0731867253780365, 0.026000868529081345, -0.021158292889595032, 0.21424716711044312, 0.028808021917939186, -0.05196787789463997, -0.049389004707336426, 0.004609387833625078,
    0.2855542302131653, -0.1551622897386551, 0.08171884715557098, 0.012183128856122494, -0.13488413393497467, -0.057291965931653976, -0.13368938863277435, 0.045029424130916595,
    0.012215077877044678, -0.0077081099152565, -0.2180611491203308, 0.016340577974915504, 0.0500800721347332, -0.13002048432826996, -0.011823751963675022, 0.07518722116947174,
    0.04264458268880844, 0.027876954525709152, 0.19795186817646027, 0.19356904923915863, -0.1704452931880951, 0.16706502437591553, 0.03296295925974846, 0.019477706402540207,
    -0.16809295117855072, 0.13112013041973114, -0.0413205623626709, -0.030308973044157028, -0.006987581495195627, 0.026499832049012184, -0.1025942862033844, -0.07254136353731155,
    -0.027030011638998985, 0.06982532888650894, 0.038135938346385956, 0.03107006661593914, -0.14242936670780182, 0.0031770076602697372, 0.20200428366661072, -0.1697801947593689,
    -0.022221647202968597, 0.04212642088532448, 0.05107061564922333, 0.05828606337308884, 0.058772195130586624, -0.08647818118333817, 0.042158614844083786, -0.009165589697659016,
    0.10678750276565552, 0.05829803645610809, -0.09097982943058014, 0.0957685187458992, 0.03286851570010185, -0.02545207366347313, 0.021852200850844383, 0.03982389345765114,
    0.011123749427497387, -0.019245637580752373, 0.014132597483694553, 0.036434970796108246, -0.030164938420057297, -0.027575066313147545, 0.013356583192944527, 0.049827635288238525,
    -0.1781935691833496, 0.10350168496370316, -0.17312860488891602, -0.058587685227394104, 0.14525528252124786, 0.06670056283473969, -0.0481431744992733, -0.15008991956710815,
    0.06476191431283951, -0.01716061308979988, 0.06461399793624878, -0.09465981274843216, 0.05270959064364433, -0.1911306232213974, 0.08301544189453125, 0.20456811785697937,
    -0.10988602042198181, 0.09028904885053635, 0.08606705069541931, 0.0002844455011654645, -0.09615699201822281, 0.17809627950191498, -0.0008710579131729901, -0.08225411921739578,
    -0.15254858136177063, 0.13895604014396667, 0.04256344586610794, -0.03971242904663086, 0.06010781601071358, -0.02963230386376381, 0.11440234631299973, 0.015102476812899113,
    0.03795384615659714, -0.012945424765348434, 0.053652551025152206, 0.0598527267575264, -0.12070232629776001, 0.10446873307228088, -0.09912163764238358, 0.08259515464305878,
    0.0171346478164196, -0.02609560824930668, -0.046672165393829346, -0.1448572725057602, 0.0728074237704277, -0.003148939460515976, 0.00833740085363388, 0.14607208967208862,
    0.004427229054272175, 0.019564898684620857, -0.04806114360690117, 0.04559794440865517, -0.16259591281414032, -0.018588734790682793, 0.0830918624997139, -0.03765079751610756,
    -0.15262286365032196, -0.021039344370365143, 0.04328326880931854, -0.09381087869405746, -0.012596379965543747, 0.2264462560415268, 0.007671133615076542, 0.05200576037168503,
    0.024143271148204803, 0.000616242818068713, 0.06904647499322891, 0.04820213094353676, -0.17520634829998016, 0.00012096982391085476, 0.002862849272787571, 0.05735807493329048,
    -0.09010586887598038, -0.10079657286405563, 0.14264336228370667, -0.2430165708065033, 0.07965776324272156, -0.0711730569601059, -0.052653633058071136, -0.11036206781864166,
    0.07252635806798935, 0.007650122977793217, 0.13417552411556244, 0.06771355867385864, 0.10942010581493378, -0.10307329893112183, 0.03743454068899155, -0.037492647767066956,
    0.08837457001209259, 0.20474442839622498, 0.0030329253058880568, 0.005066353362053633, -0.09265540540218353, 0.149934321641922, -0.03827998414635658, -0.0032534643542021513,
    -0.10598306357860565, -0.11576305329799652, 0.04618118330836296, -0.05234135314822197, -0.1380426436662674, 0.034741610288619995, 0.20844072103500366, -0.092003732919693,
    0.027311699464917183, -0.07769247144460678, -0.009069022722542286, 0.009318198077380657, 0.010759071446955204, 0.028884489089250565, -0.05059710890054703, 0.11426194757223129,
    -0.154176726937294, 0.07793763279914856, -0.04404105618596077, 0.10773681104183197, 0.0341326929628849, 0.0036468859761953354, 0.05531049147248268, 0.013986009173095226,
    0.035431746393442154, -0.18222106993198395, 0.1231418326497078, 0.04938674718141556, -0.005846275482326746, 0.06176850572228432, 0.02769799716770649, -0.013919845223426819,
    0.049730006605386734, -0.004737030249089003, -0.12639109790325165, -0.050815630704164505, -0.1554417461156845, -0.028421225026249886, 0.08687885105609894, -0.1228676587343216,
    0.056139588356018066, 0.07557234168052673, -0.14325086772441864, 0.07264131307601929, 0.05428092181682587, -0.11382447183132172, 0.016497792676091194, -0.04674883559346199,
    0.05756116658449173, -0.01668120175600052, -0.1534966230392456, 0.012953901663422585, -0.06304378062486649, -0.08375421166419983, -0.0759456604719162, -0.013876254670321941,
    -0.08548379689455032, 0.1311653107404709, -0.016944868490099907, 0.0029690051451325417, -0.052269089967012405, 0.07427467405796051, -0.07316305488348007, -0.058663684874773026,
    -0.019448384642601013, 0.03977830708026886, -0.013642552308738232, 0.03383159264922142, -0.07363978028297424, 0.06017857789993286, -0.02027074806392193, 0.25353461503982544,
    0.012893395498394966, 0.03431157395243645, -0.01255772914737463, 0.01883554272353649, 0.03477137163281441, 0.04546229913830757, 0.00907426793128252, -0.0005333855515345931,
    0.1695474237203598, 0.014156666584312916, 0.053042978048324585, -0.10951290279626846, 0.037994951009750366, -0.014876297675073147, -0.06644812971353531, 0.036322884261608124,
    0.28610074520111084, -0.20579861104488373, 0.04561696574091911, 0.09303975105285645, 0.015922842547297478, -0.031720638275146484, 0.06277050822973251, -0.042193882167339325,
    -0.3011961281299591, -0.05303478240966797, -0.10293632000684738, 0.003499631304293871, -0.03423944115638733, -0.08183953166007996, 0.22840286791324615, -0.08317386358976364,
    -0.0515134334564209, -0.005759886931627989, 0.104453906416893, 0.1467595100402832, 0.051698096096515656, 0.2134314477443695, 0.0177077017724514, -0.13263045251369476,
    -0.04203619435429573, -0.04987147077918053, -0.09661716967821121, -0.1630226969718933, -0.12297683209180832, 0.056613631546497345, 0.04407939687371254, -0.04929562658071518,
    0.0036135304253548384, -0.00014972526696510613, -0.043708764016628265, -0.03379488363862038, 0.05346968024969101, 0.025185739621520042, 0.009694778360426426, 0.06794063001871109,
    0.019470492377877235, 0.011790319345891476, -0.01910221390426159, 0.025721799582242966, -0.019849462434649467, 0.27605047821998596, -0.1413014531135559, -0.14063911139965057,
    0.0192127488553524, -0.05143822357058525, -0.019977103918790817, 0.013392897322773933, -0.023771394044160843, 0.03697884827852249, 0.019903011620044708, -0.031003711745142937,
    0.01019569393247366, 0.002411748981103301, -0.07346753776073456, 0.2701144218444824, 0.0314146913588047, 0.030145281925797462, -0.030632121488451958, 0.047384411096572876,
    -0.14138035476207733, -0.12592525780200958, -0.03573119267821312, -0.13500356674194336, 0.008816074579954147, 0.09488029032945633, -0.027119694277644157, -0.06101108342409134,
    -0.04668458551168442, 0.008033322170376778, -0.20825329422950745, 0.0026309406384825706, -0.059699222445487976, 0.08919110149145126, 0.25301364064216614, 0.07605665922164917,
    -0.048020217567682266, -0.014936511404812336, 0.04970598965883255, 0.011843845248222351, -0.1940590888261795, 0.014197255484759808, 0.05036481097340584, 0.01601834036409855,
    -0.025841880589723587, -0.23220093548297882, 0.020658010616898537, -0.021103395149111748, -0.060999952256679535, 0.03765943646430969, -0.05355435609817505, 0.01816892996430397,
    -0.08301334828138351, 0.012148713693022728, -0.007060965523123741, -0.06085510924458504, 0.0009067803039215505, 0.11083699762821198, -0.04097867012023926, 0.03665560483932495,
    0.03249473124742508, 0.19641846418380737, 0.11765680462121964, -0.09582342952489853, -0.012370620854198933, 0.00024024336016736925, -0.06949868053197861, -0.01270631980150938,
    -0.0797637328505516, 0.14115861058235168, 0.09812676161527634, 0.04949445649981499, 0.07480130344629288, 0.12366196513175964, 0.0737266018986702, -0.005366604309529066,
    -0.06524292379617691, -0.025388993322849274, 0.23093676567077637, -0.007306382991373539, -0.04584672674536705, -0.09513800591230392, -0.05528824031352997, 0.011095749214291573,
    -0.06728924065828323, 0.048107873648405075, -0.056913625448942184, 0.13514719903469086, -0.1174747496843338, 0.006962571293115616, -0.013941838406026363, 0.051593098789453506,
    -0.005788048263639212, 0.0030961167067289352, 0.04341192916035652, -0.19518262147903442, 0.01483604870736599, -0.1482706516981125, -0.025079920887947083, 0.0091715008020401,
    0.03843110427260399, -0.02016601897776127, -0.021011004224419594, -0.09205815941095352, 0.11442122608423233, -0.04149051383137703, -0.03337673470377922, 0.05355126038193703,
    0.015479471534490585, 0.057746779173612595, 0.007554515264928341, 0.07136020064353943, 0.10069643706083298, -0.009869484230875969, 0.0399346686899662, -0.10126348584890366,
    0.03875182941555977, 0.006655346602201462, -0.06553275138139725, 0.02158941701054573, 0.10053172707557678, -0.023737885057926178, -0.02804506942629814, 0.07881492376327515,
    0.09887674450874329, 0.09715160727500916, 0.09464774280786514, -0.011543452739715576, -0.04088616743683815, 0.017674636095762253, 0.06297694146633148, -0.005381441675126553,
    0.08135570585727692, 0.06446035951375961, -0.013599421828985214, -0.0791231319308281, -0.019737351685762405, -0.012625549919903278, -0.05699927359819412, 0.04480096697807312,
    0.026456473395228386, -0.23923911154270172, -0.007860319688916206, 0.009601342491805553, 0.16111108660697937, -0.03899700939655304, -0.07968133687973022, 0.029063915833830833,
    0.025497158989310265, 0.030337288975715637, 0.18570555746555328, -0.03994359076023102, 0.07340476661920547, 0.05735702067613602, -0.01170174777507782, 0.032125167548656464,
    0.03259779512882233, -0.027344640344381332, 0.05993426591157913, -0.10146501660346985, 0.02832389622926712, 0.09731230139732361, -0.03308801352977753, -0.0453164204955101,
    0.02227167785167694, 0.003877202747389674, -0.06269599497318268, -0.08567172288894653, 0.04230904579162598, -0.05245218053460121, -0.009557471610605717, -0.04365156590938568,
    0.023254048079252243, -0.008558838628232479, -0.06804203987121582, -0.061722319573163986, 0.024837341159582138, -0.09805971384048462, 0.01733914203941822, 0.054064035415649414,
    0.0674889087677002, 0.2013886272907257, -0.05031096935272217, -0.004939498845487833, -0.09838555008172989, -0.036617081612348557, -0.041350483894348145, -0.05162123218178749,
    -0.043186478316783905, -0.01705300807952881, -0.04999064281582832, -0.024717379361391068, -0.07336350530385971, 0.03583226725459099, -0.08051996678113937, 0.017558995634317398,
    -0.007136170286685228, -0.032160576432943344, -0.012685034424066544, -0.05437852814793587, -8.463610356557183e-06, 0.021324042230844498, -0.09386307001113892, 0.012704197317361832,
    0.06288875639438629, -0.042018551379442215, -0.023472024127840996, -0.14981411397457123, 0.01169555727392435, -0.02868010848760605, -0.02072017267346382, -0.03688599169254303,
    -0.015495535917580128, -0.04657892882823944, -0.026142926886677742, 0.06140147149562836, -0.041639044880867004, -0.08731193095445633, 0.007579886354506016, -0.0428021103143692,
    0.012505274266004562, -0.05338487774133682, 0.0006143946666270494, 0.08055225759744644, -0.06333186477422714, -0.05741022899746895, -0.0714900866150856, 0.00718682399019599,
    -0.0835757628083229, 0.015891848132014275, -0.08998671174049377, 0.04426700249314308, -0.05045561119914055, 0.04897283762693405, 0.007574857212603092, 0.015926163643598557,
    0.00615824805572629, -0.06136089935898781, 0.08812139183282852, 0.07903490215539932, -0.09305699914693832, -0.1007939800620079, 0.02258222922682762, 0.018685854971408844,
    0.11538595706224442, 0.08296528458595276, 0.010944469831883907, 0.027275415137410164, -0.0521949864923954, 0.047034852206707, -0.09971113502979279, -0.10139115899801254,
    0.007182893343269825, -0.087169349193573, 0.06836625188589096, -0.01471368782222271, 0.16879530251026154, -0.013819511979818344, -0.025037316605448723, -0.07853788882493973,
    -0.042682573199272156, -0.07339952141046524, 0.021992333233356476, 0.008812754414975643, -0.048087846487760544, 0.004500662442296743, -0.044860243797302246, -0.09708651900291443,
    -0.08782527595758438, -0.059446804225444794, 0.008474690839648247, -0.08046319335699081, -0.007043503224849701, 0.00932455062866211, 0.020409228280186653, -0.05050020292401314,
    -0.11763554811477661, 0.03528759256005287, 0.07749397307634354, -0.040754690766334534, -0.018909668549895287, 0.000570567965041846, 0.038724206387996674, 0.0005009432788938284,
    -0.11253956705331802, -0.04150644689798355, 0.10272764414548874, 0.09159857034683228, -0.050137296319007874, 0.054887283593416214, -0.004942028317600489, -0.04836325719952583,
    -0.011610496789216995, -0.0047737970016896725, 0.03045796975493431, -0.11180595308542252, 0.03794698417186737, -0.11146815121173859, -0.04896673187613487, -0.034567929804325104,
    0.04170599207282066, -0.030584106221795082, 0.04791206493973732, -0.007196600548923016, 0.09993058443069458, -0.03930226340889931, -0.02093670889735222, 0.018532853573560715,
    -0.14054585993289948, -0.036239393055438995, -0.007250780705362558, -0.04410744458436966, 0.0587349534034729, 0.09528954327106476, -0.026279889047145844, -0.008832593448460102,
    -0.02692883275449276, -0.0909082219004631, -0.06537924706935883, -0.005320763681083918, 0.012422407977283001, 0.03554276376962662, -0.08424847573041916, -0.030816184356808662,
    -0.03090226836502552, -0.033665064722299576, -0.05169326439499855, -0.008227461948990822, -0.029566051438450813, 0.02877693995833397, -0.052816037088632584, -0.06323724240064621,
    -0.009357944130897522, 0.03487784042954445, 0.022563591599464417, 0.15307284891605377, 0.055019766092300415, 0.0314677357673645, 0.013480307534337044, -0.021952440962195396,
    0.03030531108379364, -0.035698775202035904, -0.05062035843729973, -0.1341453641653061, 0.024512404575943947, 0.038071777671575546, -0.005487934220582247, -0.05772046372294426,
    0.02349834330379963, 0.010260059498250484, -0.01631813868880272, -0.01899789460003376, -0.09814635664224625, -0.02759503200650215, -0.08768920600414276, 0.061181966215372086,
    -0.042032934725284576, -0.10051964968442917, 0.060797300189733505, 0.01972033642232418, -0.05115494877099991, -0.043380893766880035, -0.06834571063518524, -0.04427380487322807,
    0.017091676592826843, -0.037326812744140625, 0.028726449236273766, 0.08357962965965271, 0.08598390966653824, 0.0008673138218000531, 0.0473700650036335, -0.006211109925061464,
    -0.05665590241551399, 0.0003152195131406188, 0.06757950782775879, -0.005484201014041901, 0.02610447257757187, 0.020122436806559563, 0.040598854422569275, 0.007472718134522438,
    -0.006628332193940878, 0.0011926338775083423, 0.012123959138989449, -0.010327036492526531, -0.07793346792459488, -0.0019145271508023143, -0.017292454838752747, 0.035420678555965424,
    0.0048630801029503345, 0.017132584005594254, 0.07861093431711197, -0.0009148041135631502, 0.0365501306951046, -0.01865483820438385, -0.06659247726202011, -0.04413040354847908,
    -0.029517877846956253, -0.035905417054891586, -0.09096036851406097, -0.0035469906870275736, -0.01879982464015484, 0.0026078266091644764, -0.00014504983846563846, -0.051640622317790985,
    -0.02438245341181755, 0.13389283418655396, 0.037301283329725266, -0.04122515767812729, 0.028832780197262764, 0.07560449838638306, 0.0703035518527031, -0.037355031818151474,
    -0.09674417972564697, -0.030003655701875687, -0.07903652638196945, -0.0009037391282618046, -0.004954231437295675, 0.03850587084889412, 0.022369299083948135, 0.0643620416522026,
    -0.012134172953665257, -0.07387033849954605, -0.0502038337290287, -0.051111720502376556, 0.001555891358293593, 0.04189511761069298, 0.08413314819335938, -0.010371697135269642,
    -0.016781989485025406, -0.02009713649749756, -0.13199864327907562, 0.09344598650932312, -0.07620670646429062, 0.08933092653751373, 0.13499851524829865, -0.0972917303442955,
    0.039633214473724365, -0.051385026425123215, -0.05660521239042282, 0.013667483814060688, -0.03155281022191048, -0.021123642101883888, 0.012881592847406864, 0.0009164527873508632,
    -0.05392680689692497, 0.06768724322319031, 0.20052163302898407, 0.004851916804909706, -0.022533420473337173, -0.01968960650265217, 0.06158267334103584, 0.007524124812334776,
    -0.06926465034484863, -0.1229577586054802, 0.18180616199970245, -0.045740798115730286, -0.06068282574415207, -0.09932178258895874, 0.057395774871110916, -0.004659124184399843,
    -0.038556959480047226, 0.04706365242600441, -0.03610871732234955, -0.05603047460317612, -0.03707895800471306, 0.025645961984992027, -0.01454099453985691, -0.06644625961780548,
    -0.002515713917091489, 0.0733197033405304, -0.06182681769132614, 0.008693463169038296, 0.07752589881420135, 0.03569134324789047, -0.0830615684390068, 0.008418030105531216,
    0.14513258635997772, 0.06105732172727585, -0.055975593626499176, 0.01107376255095005, 0.09847169369459152, -0.11783417314291, 0.08006696403026581, -0.06698170304298401,
    0.031826939433813095, 0.11874071508646011, -0.08986945450305939, -0.15300782024860382, -0.12249938398599625, -0.09868397563695908, -0.03422180190682411, -0.028678247705101967,
    0.07095973938703537, -0.03170103579759598, -0.04577523469924927, -0.015831058844923973, -0.0008220452000387013, -0.011311697773635387, -0.14741654694080353, 0.06735579669475555,
    0.07586904615163803, -0.06050802767276764, -0.1405164748430252, 0.19508707523345947, 0.04028341919183731, 0.08242255449295044, -0.06711981445550919, 0.08277308195829391,
    0.08055643737316132, 0.04850529506802559, -0.04338134080171585, -0.047441575676202774, -0.0011485307477414608, 0.02936461754143238, -0.012336807325482368, 0.12649986147880554,
    -0.043959058821201324, -0.06622709333896637, -0.007300721015781164, -0.04354172572493553, 0.017207736149430275, 0.03430870175361633, -0.05435791611671448, -0.06328357011079788,
    0.007641288451850414, 0.0948840081691742, -0.1325003206729889, 0.16669344902038574, 0.08394664525985718, 0.016758449375629425, -0.1114443764090538, 0.05873642861843109,
    0.022141076624393463, -0.06805705279111862, 0.05207854136824608, 0.027028711512684822, 0.02951779030263424, -0.061622388660907745, -0.04447522759437561, 0.0536351203918457,
    0.09729594737291336, -0.05927019193768501, -0.028277244418859482, 0.036328766494989395, 0.018295735120773315, -0.12245266139507294, -0.08110947906970978, 0.10886293649673462,
    -0.026284411549568176, 0.01503663882613182, -0.001361345173791051, -0.03498081490397453, 0.1547226905822754, -0.02971472591161728, 0.27049532532691956, -0.05065863952040672,
    -0.0026579417753964663, -0.03799910843372345, 0.038944508880376816, 0.03550470247864723, 0.06529839336872101, -0.06705641746520996, 0.26490044593811035, -0.21810956299304962,
    -0.15636992454528809, 0.010028218850493431, -0.024372762069106102, -0.03980075567960739, -0.09953589737415314, 0.041385795921087265, 0.1356346309185028, -0.03556795045733452,
    -0.07857072353363037, 0.0010020899353548884, 0.2734500467777252, -0.11917182058095932, 0.022536063566803932, 0.007708377670496702, -0.02451389655470848, 0.009874803014099598,
    -0.16559477150440216, -0.13576313853263855, 0.39148879051208496, -0.07525134831666946, -0.2226000875234604, -0.1599692851305008, 0.03908722102642059, -0.00300582661293447,
    -0.0167385321110487, -0.10460048168897629, 0.09451327472925186, 0.0038691211957484484, 0.15314479172229767, -0.0019197867950424552, -0.020096750929951668, -0.2198040783405304,
    0.012145096436142921, -0.03643934056162834, -0.045418668538331985, -0.008963893167674541, 0.07927519083023071, 0.005524440668523312, -0.0022721022833138704, 0.06689081341028214,
    -0.032310087233781815, -0.049502842128276825, 0.03432076796889305, 0.08311641961336136, -0.06315770000219345, -0.15171249210834503, 0.019883552566170692, 0.05970827862620354,
    -0.010242853313684464, -0.05083223059773445, -0.000259132037172094, 0.0187896266579628, -0.13965484499931335, 0.03282621502876282, -0.16332793235778809, -0.010528198443353176,
    -0.007318506482988596, -0.020343057811260223, 0.005255082156509161, -0.03125162422657013, 0.008863653056323528, -0.007302350364625454, -0.16009682416915894, 0.034834716469049454,
    -0.05008134990930557, -0.02656160667538643, -0.32760918140411377, 0.32196494936943054, 0.16643379628658295, 0.06782203912734985, 0.10449465364217758, 0.12089665234088898,
    0.28321483731269836, -0.04061079025268555, 0.3416236937046051, -0.048917658627033234, 0.058013007044792175, 0.02350025251507759, 0.04418220743536949, -0.025338146835565567,
    -0.08199913054704666, -0.07543639093637466, -0.04225747287273407, -0.21784940361976624, -0.044242288917303085, -0.03195406496524811, -0.048696018755435944, -0.006104633677750826,
    -0.0004350670496933162, 0.19768208265304565, -0.19253940880298615, 0.004856477025896311, 0.09540713578462601, 0.09915094077587128, -0.09320726990699768, 0.06588272750377655,
    -0.0039979396387934685, 0.017558440566062927, -0.0070197973400354385, 0.11481984704732895, 0.0585709847509861, -0.008813143707811832, -0.005556249059736729, 0.09530474245548248,
    0.031287550926208496, 0.01415279507637024, -0.003921501338481903, -0.03336915373802185, -0.05455160140991211, -0.1795022338628769, 0.008945761248469353, 0.0292426198720932,
    0.046322036534547806, -0.029202772304415703, 0.05103887990117073, -0.017162930220365524, 0.09769797325134277, 0.0013240936677902937, 0.09625186771154404, -0.013820512220263481,
    -0.009934214875102043, -0.09168671816587448, 0.005654260981827974, 0.02122354693710804, -0.025526167824864388, -0.022085443139076233, -0.028673844411969185, -0.040890928357839584,
    -0.044849202036857605, -0.00490313908085227, 0.04077982157468796, 0.08570830523967743, 0.08116277307271957, 0.150443896651268, 0.00707643898203969, -0.08245380222797394,
    -0.046079009771347046, -0.13960398733615875, 0.11481212079524994, -0.020705774426460266, 0.07447616010904312, 0.014430772513151169, 0.007869432680308819, -0.012587424367666245,
    -0.10041990876197815, 0.21852059662342072, -0.11159352958202362, 0.1593361496925354, -0.004578545689582825, 0.013648521155118942, -0.11256035417318344, -0.019701506942510605,
    0.06023691967129707, -0.012349260970950127, 0.018467484042048454, 0.04633941128849983, 0.018084093928337097, 0.0764818862080574, -0.044698964804410934, -0.11187183111906052,
    0.037395015358924866, -0.011248581111431122, 0.0943472757935524, -0.00557746971026063, 0.09320192784070969, 0.05137791857123375, 0.012039308436214924, 0.05748923867940903,
    -0.007297700271010399, 0.020957734435796738, 0.0005427630967460573, -0.1276898980140686, -0.09268873184919357, 0.06550941616296768, 0.029816079884767532, 0.05244592949748039,
    -0.01314611081033945, 0.04008186608552933, -0.012129174545407295, -0.024885060265660286, 0.025026638060808182, 0.027357222512364388, -0.07763250917196274, -0.01451783161610365,
    0.013228941708803177, 0.14263920485973358, 0.03295551985502243, 0.05020204186439514, -0.04977313056588173, 0.010279796086251736, -0.1483999639749527, 0.025728030130267143,
    -0.057771794497966766, -0.04107966646552086, -0.10883146524429321, -0.1789335459470749, 0.1608227789402008, 0.042240746319293976, -0.039390452206134796, 0.0924774706363678,
    0.041293419897556305, -0.07947751134634018, 0.09292126446962357, -0.0713648647069931, 0.023659396916627884, 0.014179971069097519, -0.10019517689943314, -0.029969491064548492,
    -0.1051081120967865, 0.0812598168849945, 0.0510563999414444, 0.08672869205474854, -0.11435890942811966, 0.00761924684047699, -0.015250727534294128, 0.04649880900979042,
    -0.02360599860548973, 0.007122003007680178, 0.08325234055519104, 0.00837163720279932, 0.08616943657398224, -0.06387483328580856, 0.12047864496707916, -0.025286737829446793,
    -0.005384138319641352, -0.003678462002426386, 0.12645979225635529, -0.014459232799708843, -0.05656014755368233, -0.0305737666785717, 0.003170895157381892, -0.09132657945156097,
    0.04238678514957428, 0.021631740033626556, -0.03411821275949478, 0.13308008015155792, -0.10312143713235855, 0.060145530849695206, 0.0010031444253399968, 0.006982011254876852,
    -0.026683522388339043, 0.021136939525604248, 0.07361564040184021, 0.08457892388105392, -0.18581250309944153, -0.059537243098020554, -0.04478949308395386, -0.011560029350221157,
    -0.0034236423671245575, -0.04808502271771431, -0.05272167548537254, -0.01334981806576252, 0.07500867545604706, 0.00816958025097847, -0.11902028322219849, 0.11150171607732773,
    -0.09100398421287537, 0.05609855800867081, 0.09276371449232101, -0.12215285003185272, -0.041326604783535004, 0.023441091179847717, 0.10886033624410629, 0.22488127648830414,
    -0.17105399072170258, 0.060793437063694, 0.1195465475320816, 0.20985323190689087, 0.05103586986660957, -0.04383544251322746, 0.04600686952471733, 0.030134016647934914,
    0.07243518531322479, 0.128436878323555, -0.09009994566440582, 0.10643549263477325, -0.20318123698234558, 0.14435364305973053, -0.17324399948120117, 0.010118648409843445,
    -0.01130884699523449, -0.04185854271054268, -0.17153312265872955, -0.03150417283177376, 0.14173176884651184, -0.11085195094347, 0.07107347995042801, 0.10177995264530182,
    0.06525322049856186, -0.009199375286698341, -0.12971748411655426, 0.1263517439365387, 0.16740740835666656, -0.0197543166577816, 0.01769803836941719, 0.025436928495764732,
    0.041911594569683075, 0.06015282869338989, -0.06412148475646973, 0.10979052633047104, -0.08170802891254425, -0.11454247683286667, 0.005033643916249275, 0.021983083337545395,
    -0.007571592461317778, 0.026572953909635544, -0.012318743392825127, 0.05734677612781525, 0.12376865744590759, 0.044673603028059006, -0.12344098091125488, -0.004634635057300329,
    0.03630442917346954, -0.029934551566839218, 0.015141656622290611, 0.02896089293062687, 0.030825691297650337, -0.04159640148282051, -0.0599210299551487, -0.08086727559566498,
    -0.018615426495671272, -0.01765848509967327, 0.16395461559295654, -0.12322178483009338, -0.02923509106040001, -0.002012450946494937, -0.13390909135341644, 0.15904757380485535,
    0.05711914598941803, -0.058390915393829346, -0.06236506253480911, -0.19899219274520874, -0.03767181560397148, 0.04644698649644852, -0.05118553340435028, -0.05100908502936363,
    -0.14502941071987152, -0.08200270682573318, 0.030987612903118134, -0.13090039789676666, 0.040419578552246094, 0.14455686509609222, 0.20116938650608063, 0.03043130598962307,
    0.04219819977879524, -0.21871837973594666, -0.039877597242593765, -0.03237036615610123, 0.11912321299314499, -0.10096447914838791, -0.05616692081093788, 0.18592168390750885,
    -0.03234534338116646, 0.03737645968794823, -0.012784890830516815, -0.08107948303222656, 0.18915288150310516, 0.04999980702996254, 0.011660384945571423, 0.25105077028274536,
    -0.03585940599441528, 0.00046121355262584984, -0.004365631379187107, -0.053827520459890366, 0.0011351662687957287, 0.10550007969141006, -0.038867466151714325, -0.040594037622213364,
    0.012779534794390202, -0.0016479736659675837, -0.002028619172051549, 0.0050002941861748695, -0.0002864931302610785, -0.03157235309481621, -0.09581603109836578, -0.009277123026549816,
    -0.00400861632078886, -0.006279918365180492, 0.01943923532962799, -0.030056210234761238, 0.05011049658060074, -0.010693587362766266, 0.06676739454269409, -0.07534141838550568,
    -0.04672195389866829, 0.08874651044607162, -0.018905367702245712, -0.021393360570073128, -0.042883094400167465, -0.004108142573386431, 0.07978766411542892, -0.051644470542669296,
    0.10177968442440033, -0.14810185134410858, 0.006842677481472492, 0.0536576546728611, 0.014218846336007118, -0.027371790260076523, -0.02268277481198311, 0.04168202728033066,
    -0.08398624509572983, 0.04437876492738724, -0.07590670138597488, -0.04762307181954384, 0.13332149386405945, 0.14975444972515106, 0.017707068473100662, -0.09909138828516006,
    -0.010385414585471153, -0.05035873129963875, 0.1022755429148674, 0.023840589448809624, 0.07271604239940643, -0.07322001457214355, 0.015076900832355022, 0.013723713345825672,
    0.05861169472336769, 0.03829800710082054, -0.0912066176533699, -0.003915754146873951, 0.15234647691249847, 0.01597803272306919, 0.015678981319069862, -0.11555103212594986,
    0.0022602856624871492, 0.0376427061855793, 0.03193214163184166, 0.08901821821928024, -0.07146701961755753, -0.04101650044322014, 0.02435016632080078, -0.06196132302284241,
    -0.08597460389137268, -0.034454360604286194, 0.04952482879161835, -0.009738749824464321, -0.1779339611530304, 0.08104043453931808, 0.013727213256061077, 0.007712660823017359,
    0.04053836688399315, -0.08369452506303787, 0.02368682064116001, -0.0396282859146595, -0.038630638271570206, -0.035410165786743164, -0.027689868584275246, 0.03105536289513111,
    -0.07313401252031326, -0.09910241514444351, -0.09626460820436478, -0.06438098102807999, -0.11561233550310135, -0.16139881312847137, 0.1843646913766861, 0.09485254436731339,
    -0.01652093604207039, -0.07071162015199661, -0.019311852753162384, -0.14098232984542847, 0.08715543895959854, 0.006946368142962456, -0.07666607946157455, -0.028183316811919212,
    -0.042063165456056595, -0.0656152069568634, -0.022392986342310905, 0.08098902553319931, 0.15425507724285126, -0.1254637986421585, 0.011644973419606686, 5.2274328481871635e-05,
    0.041459567844867706, -0.09390630573034286, 0.11969836801290512, -0.1702899932861328, -0.05335591733455658, 0.16322912275791168, 0.06488098204135895, 0.10266555100679398,
    -0.006204960402101278, -0.06672178208827972, 0.013749439269304276, -0.02235196717083454, 0.03503390774130821, 0.018532004207372665, 0.021172212436795235, 0.022756244987249374,
    -0.03761691227555275, 0.06254608184099197, -0.040827494114637375, 0.015440216287970543, 0.027745557948946953, 0.008631212636828423, 0.037892166525125504, -0.14239639043807983,
    0.018187182024121284, 0.010136274620890617, 0.014431517571210861, -0.027890006080269814, 0.15378186106681824, 0.051102083176374435, -0.08010116219520569, -0.005709274671971798,
    -0.03492453321814537, 0.06668567657470703, -0.01927230693399906, -0.031206000596284866, 0.0083451634272933, -0.00705753592774272, 0.1082809716463089, 0.10028303414583206,
    0.030200175940990448, 0.029879286885261536, -0.06561358273029327, 0.06058531627058983, 0.004742317833006382, -0.052781276404857635, -0.0413890965282917, 0.10915175080299377,
    -0.09766815602779388, 0.12597636878490448, -0.05046224221587181, -0.13121499121189117, -0.06812510639429092, -0.032202593982219696, -0.006056024227291346, -0.025475798174738884,
    -0.030853351578116417, -0.16314643621444702, -0.12162946164608002, 0.046476393938064575, -0.09689781069755554, 0.022389324381947517, 0.032752424478530884, 0.02450885809957981,
    -0.025193819776177406, 0.08174240589141846, 0.1514488160610199, 0.015153051353991032, 0.07297006994485855, -0.07685887813568115, 0.04495607689023018, -0.029517803341150284,
    -0.0010779910953715444, -0.03837694227695465, -0.10646573454141617, -0.008934368379414082, 0.1451541930437088, 0.0030343036632984877, -0.025479843840003014, -0.1338091641664505,
    -0.025665851309895515, -0.03750567510724068, 0.06001346930861473, -0.10823382437229156, 0.016938751563429832, -0.02203456498682499, 0.040664128959178925, -0.006744931917637587,
    0.03278610482811928, 0.037106528878211975, -0.001422293484210968, 0.018259182572364807, 0.10980783402919769, -0.01018060464411974, 0.15245400369167328, -0.03495132550597191,
    0.026088567450642586, -0.03198232501745224, 0.013098765164613724, -0.008901393972337246, 0.0017149639315903187, -0.0021059205755591393, 0.04533056169748306, 0.03621514141559601,
    0.043862234801054, -0.020582187920808792, 0.0019375563133507967, -0.010249044746160507, 0.17866913974285126, -0.18540175259113312, -0.0482308529317379, 0.1674446016550064,
    -0.013061223551630974, 0.03577245771884918, 0.054623059928417206, -0.11640024185180664, 0.07600350677967072, 0.010987372137606144, -0.02775881253182888, -0.07138887047767639,
    -0.05864002928137779, 0.1414693146944046, -0.07041352242231369, -0.019916875287890434, 0.0635780319571495, -0.03539479896426201, 0.0069366577081382275, 0.08210905641317368,
    0.030107563361525536, -0.12214425206184387, -0.06599535048007965, 0.040584661066532135, -0.007484509143978357, 0.1707153618335724, -0.02633574604988098, 0.11333633959293365,
    0.012969490140676498, 0.014811491593718529, 0.06098703294992447, -0.014992805197834969, -0.022059481590986252, -0.020406199619174004, 0.012463673017919064, -0.24171100556850433,
    0.016224965453147888, 0.03301046043634415, 0.05019383132457733, 0.08083168417215347, -0.023779384791851044, 0.03130244463682175, 0.0501219742000103, 0.04198197275400162,
    -0.042519260197877884, 0.032159868627786636, -0.0023523252457380295, -0.022487593814730644, -0.21982073783874512, -0.04411427304148674, -0.11212793737649918, -0.01950373686850071,
    -0.003428976982831955, 0.12741707265377045, -0.050106145441532135, 0.03189711645245552, -0.018356913700699806, -0.03119221329689026, -0.11184549331665039, -0.09692829847335815,
    -0.03504409268498421, -0.083434097468853, 0.004051630385220051, 0.003098616376519203, -0.0024329533334821463, 0.09676429629325867, -0.0016568138962611556, -0.1655847281217575,
    -0.1617729514837265, 0.08446461707353592, 0.14592920243740082, -0.11279698461294174, -0.05634321644902229, 0.008033457212150097, 0.050041574984788895, 0.015245034359395504,
    0.10041816532611847, 0.008571957238018513, 0.043225109577178955, 0.006820752751082182, 0.04578689485788345, 0.167105570435524, 0.14489862322807312, -0.024076269939541817,
    0.007833482697606087, -0.18208611011505127, -0.03743090480566025, -0.04653286933898926, 0.0012606742093339562, 0.22956916689872742, -0.034902289509773254, -0.001168866758234799,
    0.046221774071455, 0.04993487522006035, -0.09941528737545013, -0.0016526461113244295, 0.06324770301580429, 0.058967359364032745, 0.01114609744399786, -0.09328781813383102,
    0.00960557907819748, -0.044961441308259964, 0.04939104989171028, 0.10661564767360687, 0.09329482167959213, -0.016713622957468033, -0.004621387459337711, 0.01158236339688301,
    0.009356043301522732, 0.02251945249736309, -0.03913101181387901, 0.01500515267252922, -0.008451749570667744, -0.04848655313253403, -0.11668834835290909, -0.08355239033699036,
    -0.0030609953682869673, -0.013087574392557144, 0.038203176110982895, -0.025738418102264404, 0.06722819060087204, 0.017010651528835297, -0.10455965995788574, -0.14488740265369415,
    -0.045033421367406845, 0.031170004978775978, 0.02613254450261593, 0.05408398434519768, -0.22250492870807648, -0.10762431472539902, -0.21276311576366425, 0.19392015039920807,
    0.10868313163518906, -0.028230100870132446, -0.006762530189007521, 0.08706602454185486, -0.07558991014957428, -0.02892540767788887, 0.031235191971063614, 0.08389542251825333,
    0.034221287816762924, 0.03081596828997135, 0.1744239181280136, 0.0013045958476141095, -0.1255364865064621, 0.07737535238265991, -0.1812036633491516, -0.053416550159454346,
    -0.004580226726830006, -0.09870205074548721, 0.11377213150262833, -0.015647264197468758, 0.04801326245069504, 0.10933064669370651, 0.06244945526123047, 0.07129178196191788,
    -0.07203872501850128, 0.03299646079540253, -0.06280076503753662, -0.014805302955210209, -0.13581900298595428, 0.024226635694503784, -0.013123764656484127, -0.0315573625266552,
    -0.02238507941365242, 0.009207707829773426, -0.0372329019010067, -0.18445658683776855, -0.019260253757238388, -0.0038596163503825665, 0.006530970800668001, -0.006928633898496628,
    -0.044128771871328354, -0.06806658953428268, 0.0002598907449282706, 0.032750047743320465, -0.0452820286154747, -0.05869291350245476, -0.10984250158071518, -0.0013890056870877743,
    -0.02410423755645752, -0.17329218983650208, -0.0003973990969825536, -0.07313133031129837, 0.013926471583545208, 0.015218171291053295, 0.041565507650375366, -0.09292581677436829,
    -0.014921750873327255, -0.1282988339662552, -0.07757335156202316, -0.016359547153115273, 0.03341781347990036, -0.05094055458903313, -0.09757866710424423, -0.16449184715747833,
    0.12179876118898392, 0.15290586650371552, -0.031402476131916046, 0.007780812680721283, -0.037796635180711746, 0.01886626146733761, -0.035667695105075836, -0.01131581049412489,
    -0.019829314202070236, 0.08440163731575012, -0.0770774856209755, 0.15398196876049042, 0.013432891108095646, -0.05945795774459839, 0.14848315715789795, -0.00702147139236331,
    0.00680572958663106, 0.025500494986772537, -0.017759885638952255, -0.048835210502147675, -0.10392682999372482, -0.0429207980632782, -0.050156787037849426, 0.02830158919095993,
    -0.04011416807770729, 0.010822359472513199, -0.14233507215976715, -0.04929325357079506, 0.08375255018472672, 0.02037573792040348, -0.019169924780726433, -0.04865575581789017,
    -0.03958714380860329, -0.005511292722076178, 0.049311891198158264, 0.0515761561691761, 0.0369432233273983, -0.057958561927080154, 0.03471289947628975, -0.051719680428504944,
    -0.0018925557378679514, -0.017520179972052574, 0.014587736688554287, 0.05298110470175743, -0.05215229466557503, -0.0435323603451252, 0.19358927011489868, -0.022201478481292725,
    0.012750268913805485, 0.018514985218644142, -0.04409295693039894, 0.014420917257666588, 0.007979674264788628, -0.04073256254196167, -0.0053950282745063305, 0.0804748460650444,
    0.06684812158346176, 0.10960273444652557, -0.07083462178707123, -0.02660689875483513, -0.11268698424100876, -0.006504138000309467, -0.21055375039577484, 0.006701844744384289,
    0.04014718905091286, 0.13007000088691711, -0.051246050745248795, -0.023165656253695488, 0.0063096508383750916, 0.027795255184173584, 0.023001376539468765, -0.0521295890212059,
    -0.0034603741951286793, 0.07286560535430908, -0.1353132128715515, -0.14122094213962555, -0.02757512591779232, 0.15612173080444336, -0.09657082706689835, -0.024482902139425278,
    0.04213660955429077, -0.08479622006416321, 0.041025448590517044, 0.14239384233951569, 0.0394650362432003, 0.06840550899505615, 0.07044284045696259, -0.11416660249233246,
    -0.010216018185019493, -0.04724496603012085, -0.11342570930719376, -0.11415086686611176, 0.04562286287546158, -0.07698085159063339, 0.014105649664998055, 0.018389269709587097,
    0.049133963882923126, 0.08237606287002563, 0.07352567464113235, 0.08266311883926392, -0.06783705949783325, 0.14642904698848724, -0.05928652733564377, 0.07185739278793335,
    0.0026041886303573847, 0.05964884161949158, 0.04119722172617912, 0.04689133167266846, 0.1522108018398285, -0.059837207198143005, -0.15999442338943481, 0.03718448802828789,
    -0.06822583824396133, -0.13257649540901184, 0.04217812418937683, 0.06572791934013367, -0.04128771275281906, 0.06256969273090363, 0.02480342984199524, -0.04420113563537598,
    -0.08371652662754059, 0.01036420464515686, 0.08593590557575226, 0.06403247267007828, 0.1907806396484375, 0.06165038049221039, -0.006198440212756395, -0.18525463342666626,
    0.015051196329295635, 0.19833847880363464, -0.05934187397360802, 0.09247591346502304, 0.03165352717041969, 0.010604781098663807, -0.015395045280456543, -0.012019559741020203,
    -0.14024870097637177, -0.17403025925159454, -0.07690801471471786, 0.13895286619663239, -0.09911634027957916, 0.2166305035352707, 0.04800407215952873, 0.016165681183338165,
    -0.003926794044673443, -0.19742487370967865, -0.013261356391012669, 0.09892722219228745, -0.04434189572930336, 0.06248314306139946, 0.22780568897724152, 0.042825985699892044,
    0.02573743462562561, 0.0028475732542574406, 0.07686487585306168, 0.02339482307434082, -0.12665577232837677, -0.04210583493113518, -0.0034958021715283394, 0.03565751761198044,
    -0.05829064920544624, 0.02069460228085518, 0.0764460563659668, 0.09001722931861877, 0.001866580336354673, -0.19312864542007446, 0.009871799498796463, -0.10061461478471756,
    0.002447943901643157, 0.021575862541794777, 0.017877724021673203, -0.005195724777877331, -0.09290061891078949, 0.012595901265740395, 0.1614580899477005, 0.062278326600790024,
    0.020037326961755753, -0.1519339233636856, 0.038278043270111084, -0.0744713768362999, -0.023245951160788536, -0.02407192625105381, -0.03397354483604431, -0.18492722511291504,
    0.014676432125270367, 0.05833565071225166, -0.09527211636304855, 0.1673172116279602, 0.17278486490249634, -0.014435835182666779, -0.12457555532455444, 0.028233878314495087,
    0.05596274882555008, -0.07295309007167816, -0.1445724070072174, -0.08177775889635086, 0.03500701114535332, 0.047396983951330185, -0.06017337739467621, -0.013772291131317616,
    0.09633346647024155, -0.03312637284398079, 0.09125178307294846, 0.08986347913742065, 0.05998188629746437, -0.006109244655817747, -0.11940894275903702, 0.03724032640457153,
    -0.013199258595705032, -0.11251265555620193, 0.11587091535329819, -0.02072042040526867, -0.07287275046110153, -0.1713552474975586, 0.15969277918338776, 0.07965163886547089,
    -0.020873485133051872, -0.05140044167637825, -0.2694908380508423, -0.07620545476675034, 0.05081635341048241, 0.04313608631491661, 0.008662278763949871, -0.07503438740968704,
    -0.08522572368383408, -0.027859153226017952, -0.024784406647086143, 0.1843702495098114, 0.12741725146770477, 0.16506928205490112, -0.009510901756584644, -0.012556510977447033,
    -0.006304007954895496, -0.005594768561422825, -0.05412754416465759, 0.037169184535741806, 0.12578314542770386, 0.038310907781124115, 0.08453860133886337, 0.010388009250164032,
    -0.06607486307621002, -0.23751133680343628, -0.03215140104293823, -0.032149605453014374, -0.012884615920484066, 0.03434251621365547, -0.08414321392774582, -0.043881598860025406,
    -0.05075574666261673, 0.040419939905405045, -0.04732033982872963, -0.05711401253938675, -0.06524708122015, 0.1270853579044342, -0.1370997428894043, -0.1728840470314026,
    -0.07468708604574203, -0.1278994083404541, 0.055086374282836914, 0.02502724528312683, 0.1281580924987793, -0.034957338124513626, -0.011151704005897045, -0.03384685888886452,
    0.19365237653255463, -0.04869648441672325, 0.08965761214494705, -0.043771855533123016, -0.04644044488668442, 0.034836169332265854, 0.1345321238040924, -0.05403315648436546,
    -0.03702065348625183, 0.21432150900363922, -0.05108007416129112, 0.012233199551701546, -0.010340963490307331, 0.008868254721164703, 0.12991657853126526, 0.21233898401260376,
    -0.03934505209326744, 0.09449107199907303, 0.14671777188777924, 0.16356244683265686, 0.030279068276286125, 0.006983411498367786, -0.005976888816803694, -0.1550544947385788,
    0.016618479043245316, 0.0025829391088336706, 0.03951921686530113, -0.16560828685760498, 0.02133115381002426, -0.13670776784420013, -0.0574939139187336, 0.08458543568849564,
    -0.022807596251368523, 0.09897314012050629, -0.06549664586782455, -0.04961603507399559, 0.037669166922569275, -0.0941983088850975, -0.044595859944820404, 0.06344042718410492,
    -0.03870030865073204, -0.1461353898048401, 0.03930063545703888, -0.07209134846925735, -0.054550714790821075, -0.0022219312377274036, 0.16301490366458893, -0.037099141627550125,
    -0.009960455819964409, 0.050636161118745804, -0.25041621923446655, -0.18035559356212616, -0.02320396713912487, -0.043870434165000916, 0.10151486098766327, -0.03941679000854492,
    0.14590972661972046, 0.1428753286600113, -0.09851696342229843, -0.0038559837266802788, -0.0672990158200264, -0.05021911486983299, -0.07319442182779312, 0.04589959233999252,
    0.06746422499418259, -0.017523715272545815, 0.06628040969371796, 0.1750819832086563, -0.05484587326645851, 0.18447245657444, -0.07273063063621521, 0.06317483633756638,
    0.040210362523794174, -0.004951224196702242, -0.03162793070077896, -0.024623390287160873, 0.008715979754924774, 0.02925112284719944, -0.2909986972808838, 0.0815894603729248,
    -0.022102179005742073, 0.07571056485176086, -0.15977664291858673, 0.07108444720506668, -0.027004927396774292, 0.07844415307044983, -0.007506085094064474, -0.0007440253393724561,
    -0.0347919799387455, -0.07292300462722778, -0.027178451418876648, 0.050029922276735306, -0.010388346388936043, 0.12879428267478943, -0.024326691403985023, 0.02538817562162876,
    0.0712321475148201, 0.019904976710677147, -0.03021904081106186, 0.019984375685453415, -0.014330925419926643, -0.06706780940294266, -0.03374118730425835, 0.026171313598752022,
    0.00017250979726668447, 0.14984816312789917, -0.00036085559986531734, -0.008226783946156502, -0.03502870723605156, 0.04571231082081795, -0.021904394030570984, 0.021522080525755882,
    0.05962573364377022, -0.05465756729245186, -0.13217724859714508, 0.17305238544940948, -0.025789212435483932, -0.19863419234752655, -0.0257114190608263, 0.04009052738547325,
    -0.26029571890830994, 0.013353071175515652, 0.07023610174655914, -0.040016692131757736, 0.025616154074668884, 0.012428352609276772, -0.006784830708056688, -0.03216620907187462,
    -0.17129507660865784, 0.056399762630462646, 0.08086131513118744, -0.13375122845172882, 0.013001136481761932, -0.0050173671916127205, -0.21499408781528473, -0.05802147462964058,
    0.039898812770843506, 0.10633473098278046, 0.003080242546275258, -0.05815140902996063, -0.18245668709278107, -0.01325091440230608, 0.030121784657239914, 0.3092286288738251,
    -0.042145367711782455, 0.06136104837059975, -0.2376413643360138, -0.050051216036081314, -0.04149950295686722, 0.0036908634938299656, 0.005675462074577808, 0.08141285181045532,
    0.021482933312654495, 0.06601157039403915, -0.020037010312080383, -0.05978810787200928, 0.03080766275525093, 0.2521835267543793, -0.03736594691872597, 0.009322707541286945,
    -0.059051238000392914, -0.030278770253062248, 0.018009809777140617, 0.0216226764023304, -0.072056345641613, -0.05454782396554947, -0.014800293371081352, -0.03983071446418762,
    -0.011054052971303463, 0.028423860669136047, -0.016567282378673553, 0.058484625071287155, -0.01212101336568594, -0.0033636002335697412, -0.06944289803504944, 0.3460181951522827,
    -0.07168417423963547, 0.01872607320547104, 0.2612316608428955, 0.007520153187215328, -0.031336721032857895, -0.06680691242218018, 0.11023712158203125, -0.013503622263669968,
    0.008808310143649578, -0.11304883658885956, -0.06626387685537338, -0.14964161813259125, -0.05863576754927635, 0.05694440007209778, -0.0447557233273983, 0.049698613584041595,
    -0.025537962093949318, 0.12262707203626633, 0.13412261009216309, 0.06921733915805817, 0.02482779510319233, 0.0031402944587171078, -0.02704482525587082, -0.008101515471935272,
    -0.04046725481748581, 0.05102463439106941, -0.0028696185909211636, 0.027344372123479843, -0.030949408188462257, -0.08066811412572861, -0.11227784305810928, -0.0382571704685688,
    -0.02460547909140587, -0.07568744570016861, -0.01965291053056717, -0.04852800443768501, -0.1512661874294281, -0.028386712074279785, 0.0058334763161838055, -0.2256367802619934,
    -0.029664767906069756, 0.0209775622934103, 0.007230136543512344, -0.23275797069072723, -0.04298582300543785, -0.09023599326610565, -0.01928325742483139, -0.05810532718896866,
    0.012047839350998402, -0.08530162274837494, 0.1356154829263687, -0.07112985104322433, -0.034284576773643494, -0.0866919606924057, 0.06876670569181442, -0.20023313164710999,
    -0.07648276537656784, -0.04897548258304596, -0.09177044779062271, 0.0888751968741417, 0.03851833939552307, 0.07189400494098663, -0.051076069474220276, 0.004213464446365833,
    0.029126033186912537, 0.056364115327596664, -0.009753622114658356, -0.005532394163310528, -0.022883517667651176, 0.04405442252755165, 0.0005566852632910013, 0.01844099722802639,
    -0.05979910492897034, 0.016685251146554947, 0.014911767095327377, -0.025699110701680183, -0.07980513572692871, -0.040242284536361694, 0.05242830514907837, -0.09479294717311859,
    0.0012539856834337115, -0.001798642915673554, -0.025124382227659225, 0.06419630348682404, -0.029263991862535477, 0.01813967525959015, 0.014639424160122871, -0.023780755698680878,
    -0.033544570207595825, 0.049210961908102036, 0.00815728772431612, -0.1382761001586914, 0.04298712685704231, -0.0026913918554782867, 0.06277085095643997, -0.03225775435566902,
    0.09756182134151459, 0.10943222045898438, 0.06761930882930756, -0.06046411022543907, 0.01964464969933033, 0.022850273177027702, -0.07923432439565659, -0.05715889111161232,
    0.08130913227796555, 0.12560833990573883, -0.2139308899641037, -0.04509354382753372, 0.039679981768131256, -0.10644163191318512, 0.11681434512138367, -0.05757521465420723,
    -0.07028596103191376, 0.011542615480720997, 0.11633855104446411, -0.11501987278461456, -0.01883089542388916, 0.09258516132831573, -0.006808542180806398, 0.07741718739271164,
    0.09070010483264923, -0.032912734895944595, -0.045326460152864456, 0.060865771025419235, 0.011968705803155899, -0.002857828978449106, -0.009609918110072613, -0.07822410017251968,
    -0.17538204789161682, -0.08043698221445084, -0.056014347821474075, -0.06973282247781754, 0.003809921210631728, 0.026432562619447708, -0.07378070056438446, 0.00491905864328146,
    0.011614163406193256, -0.02528000809252262, 0.0106219332665205, -0.0008743858197703958, 0.024702902883291245, -0.04478338360786438, -0.03585385903716087, 0.014372583478689194,
    -0.0066803088411688805, -0.03535519540309906, -0.06051468849182129, -0.01050408836454153, -0.021476509049534798, -0.07406540215015411, 0.03406234458088875, -0.08656951040029526,
    -0.03710905462503433, 0.0031662334222346544, -0.08491250872612, -0.002256564097478986, 0.05834544450044632, -0.020861918106675148, 0.014870718121528625, 0.03605872020125389,
    -0.02315616048872471, -0.05863678827881813, 0.012836500070989132, -0.04097815975546837, 0.011313334107398987, -0.2358110398054123, -0.027269618585705757, -0.0007482486544176936,
    0.0444185733795166, -0.0035090800374746323, -0.004015524405986071, 0.052267324179410934, 0.10999847948551178, 0.10175800323486328, -0.10894405841827393, 0.08318275958299637
};


#endif /* USE_WEIGHTS_FILE */

#ifndef USE_WEIGHTS_FILE

#define WEIGHTS_sync_dense1_bias_DEFINED
#define WEIGHTS_sync_dense1_bias_TYPE WEIGHT_TYPE_float
static const float sync_dense1_bias[64] = {
    0.034087732434272766, 0.026099171489477158, 0.09909786283969879, 0.08264802396297455, 0.17904385924339294, 0.012269829399883747, -0.12402721494436264, 0.1329313963651657,
    0.09211349487304688, 0.10226694494485855, -0.02711358293890953, 0.04217931255698204, 0.010671365074813366, 0.10644304007291794, -0.09637046605348587, -0.06587594747543335,
    0.11305452138185501, -0.08621609210968018, 0.06779244542121887, -0.007765291724354029, 0.07942213118076324, 0.1245010644197464, 0.09330251812934875, 0.042557667940855026,
    -0.056457534432411194, -0.14125370979309082, 0.06108236685395241, 0.05411244183778763, 0.011052838526666164, -0.08363208919763565, 0.1492985337972641, 0.1801270842552185,
    0.024326635524630547, 0.07788931578397751, -0.030001988634467125, -0.02939031831920147, 0.22075986862182617, -0.14367598295211792, 0.14050811529159546, 0.052133943885564804,
    0.06271808594465256, 0.24149243533611298, 0.030509794130921364, 0.19098231196403503, 0.14242179691791534, 0.03285883367061615, -0.0515747144818306, 0.041280150413513184,
    -0.02787824720144272, 0.175614595413208, -0.05032859742641449, 0.07333390414714813, -0.035544585436582565, 0.08913172036409378, 0.10699991136789322, 0.011493845842778683,
    0.12067582458257675, 0.0876297652721405, 0.07235421240329742, 0.11140693724155426, -0.06826881319284439, -0.008358237333595753, 0.015807507559657097, 0.08439472317695618
};


#endif /* USE_WEIGHTS_FILE */

#ifndef USE_WEIGHTS_FILE

#define WEIGHTS_sync_dense2_weights_float_DEFINED
#define WEIGHTS_sync_dense2_weights_float_TYPE WEIGHT_TYPE_float
static const float sync_dense2_weights_float[4096] = {
    -0.15886367857456207, 0.006710889283567667, 0.07222665101289749, 0.12076831609010696, 0.0039255935698747635, 0.07167666405439377, -0.021045977249741554, -0.04574279859662056,
    -0.05390190705657005, -0.2213355302810669, 0.055475328117609024, -0.019880114123225212, 0.04804748669266701, -0.0584859773516655, -0.08772139251232147, 0.00644222367554903,
    -0.10251954942941666, -0.111078180372715, -0.13783347606658936, -0.05620438605546951, -0.08821849524974823, -0.030603937804698944, 0.13823698461055756, -0.09408146888017654,
    0.009757192805409431, 0.012279610149562359, 0.01206254493445158, 0.03174186125397682, -0.06018261983990669, -0.13545212149620056, 0.09686128050088882, -0.0075588044710457325,
    0.08776640892028809, 0.10165206342935562, 0.021146804094314575, 0.005762075074017048, 0.0019142378587275743, 0.04644126817584038, -0.0516619011759758, -0.01950153335928917,
    0.035635706037282944, -0.037277594208717346, 0.07983407378196716, -0.059835243970155716, 0.01530761644244194, -0.08191964775323868, -0.023332364857196808, -0.10157822072505951,
    -0.007876981981098652, 0.11798997223377228, 0.0586504228413105, 0.08220711350440979, -0.02347755618393421, -0.03181273117661476, 0.10048926621675491, 0.05745091661810875,
    0.0292961448431015, -0.026298493146896362, -0.0907132625579834, 0.020961817353963852, 0.14898879826068878, -0.08098824322223663, -0.07203687727451324, -0.08721005171537399,
    -0.028921939432621002, -0.0081029599532485, 0.007039456628262997, 0.07694730907678604, -0.05038519203662872, 0.058945536613464355, 0.03181803971529007, -0.013167211785912514,
    0.17266854643821716, -0.07605990767478943, 0.011523434892296791, -0.10299869626760483, 0.037563662976026535, 0.0646783709526062, -0.04711119085550308, 0.1620320975780487,
    0.15267367660999298, 0.08718845993280411, -0.03260846436023712, 0.02695595659315586, 0.14977671205997467, 0.1238430067896843, 0.13169360160827637, -0.08774575591087341,
    -0.02693895623087883, -0.07756377756595612, 0.12302715331315994, -0.05737367644906044, 0.07569390535354614, -0.010536903515458107, 0.0037805833853781223, 0.005293256137520075,
    -0.13954861462116241, 0.060726966708898544, -0.019354766234755516, 0.04366883262991905, -0.04793515428900719, 0.1172528862953186, -0.07624591141939163, 0.0403003916144371,
    0.06698761880397797, 0.036510102450847626, 0.02549380622804165, -0.043392933905124664, -0.05598917976021767, 0.006464910227805376, -0.03807288035750389, -0.08567502349615097,
    -0.1298495978116989, 0.1355430632829666, 0.007775438949465752, -0.15572448074817657, 0.0905686765909195, -0.05023699253797531, 0.08403002470731735, 0.03631686791777611,
    0.018403783440589905, -0.08530877530574799, 0.02898123301565647, 0.11127731949090958, 0.042625393718481064, -0.009259182028472424, 0.04917692393064499, 0.09175831824541092,
    -0.021872373297810555, -0.08566603809595108, 0.073172427713871, -0.05562994256615639, -0.015367853455245495, -0.006746857892721891, -0.02173982933163643, -0.13722123205661774,
    0.10160718858242035, -0.03392409160733223, 0.06244781240820885, -0.05788281187415123, -0.026178961619734764, -0.03564019128680229, -0.03230462968349457, 0.11539751291275024,
    -0.05780220404267311, 0.02304130606353283, 0.1193796843290329, -0.09134972095489502, 0.11320338398218155, -0.0301787331700325, 0.16434842348098755, 0.08206894248723984,
    0.03449678048491478, -0.07260483503341675, -0.13301686942577362, -0.05431543290615082, -0.04203156754374504, -0.04775293171405792, 0.031128156930208206, -0.03538626804947853,
    -0.011788141913712025, 0.09646463394165039, -0.06778925657272339, -0.0349079929292202, -0.1304866224527359, 0.16293227672576904, -0.10626425594091415, -0.015209491364657879,
    -0.02122635766863823, -0.009503072127699852, -0.059562426060438156, 0.15028658509254456, 0.002159090945497155, 0.032564010471105576, 0.05664359778165817, 0.06700894236564636,
    -0.019715385511517525, 0.04308164492249489, 0.08733837306499481, -0.032137125730514526, 0.02870585024356842, 0.08497564494609833, -0.09385968744754791, -0.03836614266037941,
    -0.10078027844429016, 0.10854929685592651, -0.107404425740242, 0.003112073289230466, 0.06365355849266052, 0.039674192667007446, -0.12465545535087585, 0.10206709802150726,
    -0.05666828528046608, -0.1163654774427414, 0.19078770279884338, 0.12408454716205597, 0.2008354216814041, -0.03770850598812103, -0.04503431171178818, 0.07362925261259079,
    -0.05687656253576279, -0.016598345711827278, -0.14967039227485657, 0.15836241841316223, 0.056935910135507584, -0.13311505317687988, -0.013956728391349316, 0.07427075505256653,
    0.05863866209983826, -0.07123863697052002, 0.0781562477350235, 0.023373471572995186, 0.05030296370387077, -0.0386308878660202, -0.10292242467403412, 0.090003103017807,
    0.048107292503118515, -0.06534522771835327, 0.12300669401884079, 0.043897844851017, -0.1148025244474411, -0.011528500355780125, 0.008238124661147594, -0.002214602427557111,
    0.08311259746551514, 0.10867650806903839, -0.08181235194206238, -0.09374624490737915, -0.005769359413534403, 0.11130162328481674, -0.10992418229579926, 0.011248622089624405,
    -0.069071926176548, 0.07091910392045975, 0.0407189205288887, 0.07633505761623383, 0.04271479323506355, -0.08469878882169724, -0.008563770912587643, -0.08598582446575165,
    -0.0377814844250679, 0.06269873678684235, 0.03883886709809303, -0.1341097056865692, -0.06693869829177856, 0.003191552823409438, -0.06909489631652832, -0.13392074406147003,
    -0.11082730442285538, -0.09288549423217773, -0.11541813611984253, 0.1200021356344223, 0.12261795252561569, -0.035830263048410416, 0.09409473091363907, -0.11658014357089996,
    0.027077315375208855, 0.05746334046125412, -0.041153110563755035, -0.06986118853092194, 0.08281780779361725, -0.07377053797245026, -0.10994331538677216, 0.15287134051322937,
    -0.026656562462449074, -0.07529021799564362, -0.07259572297334671, 0.09492512047290802, -0.09811244159936905, 0.010052445344626904, 0.09689551591873169, -0.07314439117908478,
    0.01501766312867403, -0.022605357691645622, 0.14325857162475586, 0.16684862971305847, 0.05779670923948288, -0.010792231187224388, 0.08717809617519379, 0.1277429461479187,
    0.012918313033878803, 0.06970512866973877, -0.0096861831843853, -0.057528749108314514, -0.020883725956082344, 0.02740204520523548, -0.061660222709178925, -0.05106253921985626,
    0.02976718731224537, -0.06175527349114418, -0.10798344016075134, -0.13317757844924927, 0.10284218192100525, 0.03730621188879013, -0.14052331447601318, 0.13321374356746674,
    -0.04700309410691261, -0.10920034348964691, -0.04137539863586426, -0.002777382731437683, -0.10249871760606766, 0.13397273421287537, -0.0182644035667181, -0.007216494530439377,
    -0.009101090021431446, -0.10451442003250122, -0.021026207134127617, -0.1790870577096939, 0.033319130539894104, -0.11149227619171143, 0.00884156208485365, -0.07731395214796066,
    0.061359696090221405, -0.029300393536686897, 0.10334616899490356, -0.03815814480185509, -0.035887736827135086, 0.04743502661585808, 0.10072583705186844, -0.026132803410291672,
    -0.05821613594889641, -0.06287882477045059, 0.0639963448047638, 0.11913225054740906, -0.027955064550042152, 0.18345721065998077, 0.0011936408700421453, -0.05795414000749588,
    0.008351008407771587, 0.05294143036007881, 0.04005153477191925, 0.01597105897963047, 0.012528480961918831, -0.04284657537937164, -0.02686026133596897, 0.12322157621383667,
    -0.16722892224788666, 0.08663763105869293, -0.008382595144212246, -0.016069777309894562, 0.13020724058151245, 0.060325782746076584, 0.08895475417375565, -0.11992312222719193,
    0.036499984562397, 0.013537665829062462, -0.09024970978498459, 0.0710747092962265, 0.023816928267478943, -0.10051389783620834, 0.0707072764635086, 0.08351658284664154,
    0.1693648248910904, 0.10620579868555069, 0.11078108847141266, 0.06920139491558075, -0.03129848837852478, -0.09120980650186539, -0.052074577659368515, -0.11670204252004623,
    -0.08105535060167313, 0.12196670472621918, -0.06965501606464386, 0.09390152245759964, -0.09936349838972092, -0.036441657692193985, 0.16326329112052917, 0.025635290890932083,
    0.03183047100901604, -0.16839227080345154, -0.010502653196454048, -0.06199833005666733, -0.11674173176288605, -0.024216430261731148, 0.05228295549750328, -0.1728089451789856,
    0.05018119513988495, -0.11734241992235184, -0.03636478632688522, 0.06325838714838028, 0.1734781116247177, -0.053258344531059265, -0.04550756514072418, -0.07412722706794739,
    0.05464881286025047, -0.025140836834907532, -0.04798753187060356, -0.014864057302474976, -0.1053432747721672, 0.1358703076839447, -0.008225404657423496, -0.10843769460916519,
    -0.04222308471798897, 0.001018844428472221, -0.06219356507062912, -0.05918953940272331, 0.02329583466053009, -0.11219247430562973, 0.06800778955221176, -0.14704610407352448,
    -0.12958014011383057, 0.02537411078810692, 0.1148395836353302, -0.013467050157487392, -0.048829153180122375, -0.029926439747214317, 0.028410229831933975, -0.13847747445106506,
    0.08544568717479706, 0.04265020415186882, -0.06435030698776245, -0.00561229232698679, 0.02574080042541027, 0.17939914762973785, 0.018083712086081505, 0.05323992297053337,
    -0.028776708990335464, -0.006707421503961086, 0.03651588037610054, 0.0024645235389471054, 0.06753817200660706, -0.01021428033709526, 0.18445396423339844, 0.11497180908918381,
    0.0546514093875885, -0.010947159491479397, -0.03966301307082176, -0.058226630091667175, -0.0932035967707634, 0.07079921662807465, -0.09896056354045868, -0.14888927340507507,
    0.1713060438632965, 0.08618900179862976, -0.04142856225371361, 0.09793426096439362, -0.04910878464579582, 0.08293633162975311, -0.0855104923248291, -0.09533972293138504,
    -0.07173341512680054, -0.12008119374513626, 0.03241557627916336, -0.10064837336540222, 0.004105618689209223, -0.08636267483234406, -0.02515590377151966, -0.11719553917646408,
    -0.11207424849271774, 0.07826334983110428, 0.11018501967191696, 0.09016495943069458, 0.1569291055202484, -0.033233482390642166, -0.0416785329580307, 0.06992761790752411,
    -0.04950781911611557, 0.03094515949487686, -0.04715487360954285, -0.028620516881346703, -0.011099467985332012, 0.04486212879419327, -0.0717163011431694, 0.01882113888859749,
    -0.06841716170310974, -0.14743328094482422, 0.07748325169086456, -0.1233820766210556, 0.020564526319503784, 0.07740199565887451, 0.13900603353977203, 0.07070573419332504,
    -0.08299272507429123, -0.021004725247621536, -0.0797828882932663, 0.043429918587207794, 0.07318422943353653, -0.09534120559692383, 0.08785516768693924, -0.058553148061037064,
    -0.028631150722503662, 0.00905840564519167, -0.09889582544565201, 0.003301505697891116, 0.10052277892827988, 0.10675875842571259, -0.004577340092509985, -0.11217294633388519,
    -0.11340077221393585, 0.037775736302137375, -0.07464410364627838, -0.027520453557372093, 0.05430319160223007, -0.01078855898231268, -0.11408979445695877, 0.06460265070199966,
    0.05133592337369919, -0.0020603626035153866, -0.10503551363945007, 0.0807114914059639, 0.10356467217206955, -0.1269810050725937, -0.035830698907375336, 0.026728618890047073,
    -0.025153452530503273, 0.03964458778500557, -0.12099293619394302, 0.029148200526833534, 0.090528205037117, 0.03304111585021019, -0.08091840893030167, 0.02553473599255085,
    0.016365304589271545, -0.03879554942250252, 0.13152076303958893, -0.05860162526369095, 0.10756970942020416, -0.06681960821151733, 0.20769411325454712, -0.02117551676928997,
    0.02292020432651043, -0.10597404092550278, 0.06667879968881607, 0.1275247186422348, 0.10905531793832779, 0.16701720654964447, -0.0934416875243187, 0.09833228588104248,
    -0.0644792765378952, -0.022093869745731354, 0.04592527076601982, 0.040657903999090195, 0.05639161542057991, 0.06448319554328918, 0.11017119884490967, -0.05513880029320717,
    0.014816462993621826, -0.0446828193962574, 0.04678686335682869, 0.03971154987812042, 0.03368912637233734, -0.002239852910861373, 0.06617052108049393, -0.0727875828742981,
    -0.09942545741796494, 0.06540665775537491, -0.031050164252519608, -0.10987607389688492, 0.09440518170595169, 0.047344837337732315, 0.02078620158135891, -0.015310268849134445,
    0.0314878411591053, 0.09338663518428802, 0.0485219806432724, -0.04410160332918167, 0.01591997966170311, 0.003644522512331605, 0.18822161853313446, -0.07911502569913864,
    -0.01953340694308281, -0.06314393877983093, -0.10156284272670746, 0.007676770444959402, -0.06269726157188416, 0.07556314766407013, 0.019341755658388138, 0.03997150436043739,
    0.06988835334777832, 0.003720903303474188, -0.07340922206640244, 0.08462073653936386, -0.04108643904328346, -0.0028877973090857267, -0.08479233086109161, -0.005773112643510103,
    0.06914707273244858, 0.004863416776061058, -0.16238908469676971, -0.02770664542913437, -0.04819286987185478, 0.10109724849462509, -0.006181168835610151, -0.1623716801404953,
    0.027193952351808548, -0.07100516557693481, -0.08340753614902496, 0.03741435706615448, -0.07310760766267776, -0.09652429819107056, 0.01478076633065939, 0.053322821855545044,
    -0.11051390320062637, 0.15916036069393158, -0.05405981466174126, 0.12632514536380768, -0.03862224519252777, -0.1359124332666397, -0.041678041219711304, 0.09601942449808121,
    0.1685781031847, -0.0765606239438057, -0.10801953077316284, -0.06533214449882507, -0.029673805460333824, 0.04305418208241463, -0.15278014540672302, 0.05075390636920929,
    -0.001176161109469831, -0.08685992658138275, 0.12087162584066391, -0.10628795623779297, 0.05831363424658775, -0.08042775839567184, 0.05356992408633232, 0.09017068892717361,
    -0.01763569749891758, -0.06241186335682869, 0.031477928161621094, 0.014433711767196655, -0.008047877810895443, 0.14570550620555878, -0.03930024430155754, 0.12364010512828827,
    -0.1427822709083557, 0.05489172413945198, -0.11707659065723419, 0.10943823307752609, 0.025907114148139954, -0.03339095041155815, -0.08861100673675537, -0.10843537002801895,
    0.03979284316301346, -0.08048713207244873, 0.10157044231891632, 0.0257983710616827, -0.0022273424547165632, 0.06194121018052101, 0.0955699011683464, 0.024352697655558586,
    -0.07121392339468002, -0.10909005999565125, 0.023666996508836746, 0.06510408967733383, -0.052650485187768936, 0.010578718036413193, 0.0957658663392067, -0.07855445891618729,
    0.09078886359930038, -0.11832161247730255, 0.09590412676334381, 0.05095798522233963, -0.06346961855888367, 0.009068726561963558, -0.0050391280092298985, 0.022408083081245422,
    0.11132676899433136, -0.009901597164571285, 0.05355093628168106, -0.10200858861207962, -0.0715099573135376, -0.055848605930805206, 0.04391913488507271, 0.027019910514354706,
    0.04794735461473465, -0.028482768684625626, 0.056999702006578445, 0.07142893970012665, 0.049755919724702835, -0.05387452617287636, 0.03928208723664284, 0.14705942571163177,
    0.0023750702384859324, 0.010978144593536854, -0.05074649676680565, -0.0403796061873436, 0.10230189561843872, 0.10762862861156464, 0.08296127617359161, 0.07882516086101532,
    0.10853011161088943, 0.004158615134656429, 0.0398215688765049, 0.1490962952375412, -0.07353746145963669, 0.05937479808926582, -0.037083640694618225, 0.003783091204240918,
    -0.08474784344434738, 0.11866097152233124, -0.013735261745750904, -0.02640661410987377, 0.09358140081167221, -0.0943680927157402, -0.09669986367225647, 0.07718181610107422,
    0.12917275726795197, 0.031115707010030746, -0.06896442174911499, 0.10472757369279861, 0.13196463882923126, 0.09327460080385208, -0.13243959844112396, -0.00024413091887254268,
    0.050238486379384995, 0.0015247550327330828, -0.07391973584890366, -0.04393111541867256, 0.10387040674686432, -0.061842627823352814, -0.049327291548252106, 0.0320814773440361,
    0.12388892471790314, 0.06266580522060394, -0.17037829756736755, 0.01738681271672249, 0.08755350857973099, 0.14149770140647888, -0.10062914341688156, -0.01716691628098488,
    0.05393395572900772, 0.09289586544036865, -0.11978062242269516, -0.04039444774389267, -0.03007812425494194, 0.029699964448809624, -0.020396454259753227, -0.06939645111560822,
    -0.1237209215760231, -0.06723365932703018, 0.12387242168188095, -0.11090551316738129, 0.086046002805233, -0.0434516966342926, 0.09584049880504608, 0.06981898844242096,
    0.015704983845353127, -0.011953283101320267, -0.007034986279904842, -0.028444955125451088, -0.08067864179611206, -0.0832500234246254, -0.10477060079574585, 0.023238640278577805,
    -0.006970997434109449, 0.033254224807024, 0.018392663449048996, 0.0017914206255227327, -0.012576360255479813, -0.029125753790140152, 0.09096036851406097, -0.10990358889102936,
    -0.06123476102948189, 0.1333274394273758, -0.03137229382991791, 0.06043247878551483, -0.004827586468309164, -0.06500337272882462, 0.0034543529618531466, -0.06930456310510635,
    -0.004000642336905003, 0.10571758449077606, 0.039995741099119186, 0.15794791281223297, -0.0009651770815253258, -0.13748495280742645, -0.12813745439052582, -0.021528104320168495,
